dN/dS,LRT,p-value,Log(L)
1.596732086728987,2.25326736268093,0.06666630726344352,-83.39725746247066
6.047418778794888,74.64131938551151,0,-209.2901362341214
5.840566125974614e-16,13.32047825018337,0.0001312616055680338,-25.43997722066656
0.1427970386044878,8.097282859199069,0.002216583314442244,-32.04237819786245
5.669980207850921,59.69614004756482,5.551115123125783e-15,-202.3735300502323
4.664351183909691,53.94598387532568,1.030286966852145e-13,-200.3294595662998
0.147266573892398,7.733602439474879,0.002710124975452088,-38.73827427934445
5.840566125974614e-16,9.911380611092447,0.0008212992523182194,-27.32886236208793
6.766572147990783,112.7840059662614,0,-279.1626960820421
9.555848176237971e-17,13.96542215144491,9.310192436595699e-05,-14.05894050853131
31.56852421649027,784.0550289044184,0,-582.0108478592255
12.59384429227435,235.1638447638491,0,-326.6668675125358
2.453621386652378,14.57319673106855,6.740931148158102e-05,-144.0839913148754
24.61935618850988,572.7846654491693,0,-500.4934491245392
6.772782151632926,101.0112241429673,0,-244.1846783366533
0.3737229505429178,4.138841802576465,0.02095491743214312,-39.64556853073279
0.1521145337216582,7.366264422564811,0.003322942569192466,-44.26904668543374
1.627016457817875,2.427918299665748,0.05959554379344628,-105.0468304378947
5.579254550583587,62.37034049121803,1.443289932012704e-15,-194.6634022113786
8.317228009741763,132.4246139008337,0,-261.2609872785064
12.94588873480377,255.0383638691408,0,-346.0661929689678
0.2644224796929519,5.792736222852369,0.008046261407897493,-29.42484313020031
19.49447466246101,390.1291036401926,0,-425.0155481907709
3.17603086687411e-16,16.44227452801014,2.507707689697325e-05,-22.37934696300093
1.991338073453234,6.085152873559593,0.00681612853641389,-111.930409503979
1,0,1,0
9.667473469010792,131.5669087976372,0,-229.836490747823
11.06882831897721,197.722247184607,0,-304.9941099115432
0.5953410298866693,1.284805616836678,0.1285037103444819,-42.34814962335232
11.63777053407137,176.1065098580314,0,-276.6222084259348
0.653677636175838,0.8353068491308164,0.1803712366421928,-40.51964769247628
23.53494079971363,561.0732785123216,0,-521.6717317327216
2.287852447174094e-16,9.887433186850231,0.0008320566839126742,-25.92942144726963
5.840566125974614e-16,13.35288712517222,0.0001290125415796539,-18.38281624202807
6.004045674177792,68.45168766837219,5.551115123125783e-17,-210.921959761297
3.17603086687411e-16,16.44221275646095,2.507789404398997e-05,-29.07160603007102
9.846081624343629,181.2139904282593,0,-343.4043076469879
74.2180371466752,1596.102351222194,0,-774.4237691778281
25.14186434224441,632.9828011810546,0,-522.3474047031875
24.30703706589811,515.3588953483536,0,-467.9692755702831
23.13306441068637,576.9746317247082,0,-522.6463752488038
8.057580007481326,139.2773614852416,0,-291.1073751476553
9.460695014228811,123.7795529367401,0,-243.4953455419221
8.97797859866154,130.9726909652179,0,-262.7229799409862
0.5869040671828029,1.363735101176175,0.1214456017478185,-50.94853602749302
28.88617409291694,689.2553814219868,0,-576.941371478133
4.990531888259861,54.53891825697895,7.6216810640517e-14,-183.2876478964479
14.09094890421071,294.5056009283028,0,-398.3581999662653
6.049158687268488,70.98611569736909,0,-198.3884843620297
23.82336913623909,584.1565670068026,0,-556.7473191424584
92.0896154451208,1719.0939552504,0,-838.0193295495553
9.361216905164234,144.2188015782094,0,-270.3416285369208
4.829360720928328,36.39785129985091,8.044023780406917e-10,-172.6924827731998
8.866227261147758,141.0889383780869,0,-269.6764438063063
1.724930906833787,3.481558152368763,0.03102814111106222,-116.1103474161105
3.788035481477807,23.68251944731765,5.680489890691476e-07,-124.3942898081089
58.58997706217392,1317.075497464972,0,-752.4444600257441
6.291986383968825,85.11601532132954,0,-247.3122972858245
1.373630593637099,0.8149628495161778,0.183328519388887,-70.87290644636984
1,0,1,0
14.47097453723448,309.7521803448417,0,-391.1415421335123
0.4420283357397838,2.668589841993551,0.05117333491442733,-37.43631003921526
10.66791364318452,190.1481329399267,0,-308.8872733944774
17.7972835299605,385.551557174557,0,-432.5366245905536
26.16888688679308,644.0457934305355,0,-551.2567856087196
0.2648163776836081,5.775469942456425,0.008125687054218178,-40.13853812935576
0.1302233027196036,9.262891812322074,0.001169217484931262,-26.04496884865345
0.1598065623551041,6.837489842056367,0.004463209222765385,-11.97890470312825
9.555848176237971e-17,13.3528871150462,0.0001290125422762634,-13.51826818281377
107.0392982034943,1827.726785033229,0,-868.2367010158754
3.17603086687411e-16,17.0201430245375,1.849268343162569e-05,-22.17568560742858
6.300017481315232,82.45839045793605,0,-230.1764942232824
13.40266233919404,231.6807967024102,0,-316.942658874451
3.402808631177661,22.68943100700847,9.520615894542672e-07,-147.1195851274049
27.56065073270324,720.6144919965964,0,-593.1223352531119
12.42463068307194,248.3540161566799,0,-368.5070702875564
5.102086568279828,42.6603839372155,3.255890002051842e-11,-149.3082872924015
0.5767622157941598,1.463950221612919,0.1131513218125083,-55.86631364518579
5.840566125974614e-16,12.30408682864649,0.0002259837843877621,-32.51612770225348
17.75707754499648,405.9595808614466,0,-445.709192075733
19.72571882007282,470.6370248078465,0,-474.122363106477
21.03462170671741,508.9950023538184,0,-499.6073222550253
0.1545014009568592,7.194232782936311,0.003656912701109516,-39.50768165946386
3.605867067171928,23.90390489062571,5.063307215724677e-07,-142.82386569219
1.896229693830023,4.329587914983563,0.01872765637062634,-105.5131680343762
15.80827694942931,361.3066575478409,0,-427.9181792308946
23.51276154594434,589.2130235079794,0,-532.3190306137191
3.427343906797324,26.52665601422001,1.299633352602747e-07,-155.6228134107329
0.489563943678258,1.96557583443446,0.08045912316904436,-45.02205789526394
9.555848176237971e-17,12.98088551102259,0.0001573435514532484,-24.15771971272604
11.48977802661859,218.4795610709214,0,-326.9833493159933
5.840566125974614e-16,11.88959107396009,0.0002822425661150318,-41.48277869341131
3.629352177036877,28.06623989993119,5.861659518879847e-08,-161.7067184855217
1.251921387826592,0.4673213223933317,0.2471110367338689,-78.27805860770417
12.69903699325145,239.2873211997575,0,-345.1330599750153
28.35389994503274,680.1965184144262,0,-548.3800529480421
4.32179005899232,39.15340648257205,1.95889526821702e-10,-181.535133099742
38.81890498412465,925.3301910911869,0,-623.0177265685702
27.22225520990999,584.551771456644,0,-542.9569414396442
32.04571011773786,686.0437331978835,0,-559.6366362868545