dN/dS,LRT,p-value,Log(L)
0.6610968402599231,7.174948360270207,0.003696428787677841,-225.7923224861826
10.78157596964806,648.2976631256545,0,-868.031657486658
16.87472796261131,865.7127397887978,0,-937.1027100964467
3.270031411876805,104.2197521278896,0,-497.7577011868659
19.83147017871272,923.1691256441989,0,-960.1115429082475
5.876455875259841,327.2025555992645,0,-723.0268760080627
0.7604223866164918,2.575422638799751,0.05426755503699593,-268.6923563983194
0.04771646085205804,66.96423198032244,1.110223024625157e-16,-107.9975430781646
29.65880019999274,1035.612496744662,0,-987.5363861991152
0.2770897275565121,31.39152515238555,1.054497283936584e-08,-157.2197748959583
5.053834449111411,268.8181172843833,0,-660.8339907645
0.1271055187497311,66.44981191376314,1.665334536937735e-16,-117.5397929647811
9.555848176237971e-17,103.6712970246524,0,-65.08318422611217
3.113125533338698,112.7021463606743,0,-563.4161099446892
13.57830231706812,758.2318773898653,0,-896.707810332072
12.68387989384717,751.2131456526315,0,-867.1687567317371
0.03484907066766049,96.25240234029741,0,-59.01462489361329
3.811043597357711,156.4053930807449,0,-575.0863166648942
13.06878694049958,761.2496364857654,0,-891.2012570690407
2.128107617946279,39.92535255978191,1.319280795719635e-10,-419.1606104666954
8.242400348723868,527.0043559605956,0,-799.1906097202689
3.911842922631868,187.2821296110551,0,-626.3431902897518
0.09763935268374557,54.70724562217296,6.994405055138486e-14,-123.2999054162764
0.6997028943237148,5.225173438307422,0.01113111309757747,-246.3412307872155
0.08687394379840538,63.79775377310304,6.661338147750939e-16,-121.2682689304971
0.4188586701358588,16.26206972166284,2.757855189811087e-05,-185.1572074727691
1.500320142147007,9.546212379414214,0.001001812196550933,-359.4044936018432
4.501278480319595,218.5573274691396,0,-635.2911820876611
9.357887374327799,534.6034391569042,0,-814.935610014395
4.273511698706039,198.0551943397181,0,-610.4609157031913
0.2520132785439338,40.82787391189532,8.31224533648367e-11,-141.2335917484961
0.06980631051158134,84.27963578476798,0,-71.11538165042515
4.581191628715855,253.2049652457692,0,-682.8955410079224
11.96743912430114,719.3568772559565,0,-893.3192558262226
20.9136479101592,857.6440642587511,0,-943.4799921638433
5.414413269899738,296.555533685817,0,-719.684039295939
0.1478325633926104,60.85859296107787,3.05311331771918e-15,-92.2747563195834
13.06956378325669,748.1777051801218,0,-883.7899296847099
0.9038618342866219,0.4755062231063221,0.2452324474851683,-286.1028112116358
9.555848176237971e-17,87.47035277344591,0,-78.62782417035739
41.3451089459975,1157.121010905958,0,-1016.158779220607
0.2508327546666912,34.77394327059505,1.851482300807561e-09,-161.7626710504674
13.56384345897203,739.3127425689538,0,-890.5494561612492
0.08931220070592803,61.58219679482926,2.109423746787797e-15,-101.7049086251835
28.42736353179212,971.6687164979942,0,-981.1121054654242
7.968015785287746,504.0866963700055,0,-778.0816672978331
0.6561247204725438,5.630185512552885,0.008826881537783993,-235.4262535846637
3.727917469165201,161.8910319123308,0,-621.0306987401003
10.48942660376175,636.4165256616898,0,-824.4794851074782
2.538222411221049,62.07620123679908,1.665334536937735e-15,-470.1640609295526
9.555848176237971e-17,88.76714906933131,0,-88.4946204937651
0.2131285420669828,25.44356826670375,2.277568670328023e-07,-124.881292641685
0.1379447678757684,50.46356640564056,6.070144387138043e-13,-107.8526260845321
5.336057064303564,307.6946386391858,0,-719.0016113267121
9.555848176237971e-17,108.3796239282389,0,-54.1183417056004
1.180629624645457,1.482311926371835,0.1117065750459983,-332.2209217614974
3.786658212651326,147.0964729941602,0,-565.7253264523523
4.004733053112191e-17,87.53462794110601,0,-105.6093195704796
6.656150381519557,391.23479136879,0,-755.4786295219856
5.114956077737342e-17,114.2466540698648,0,-51.91223001653577
17.91924860926876,826.740198345248,0,-942.0272152237318
0.08129525209525755,69.43524238392862,5.551115123125783e-17,-113.302925402853
8.397429605018814,488.5999190345713,0,-808.756388891216
9.313427531549875,572.35678231928,0,-837.8870087858328
0.04397497726401822,73.55831030661102,0,-81.70634133446708
2.731941657024047e-16,85.83797527343799,0,-77.5660226585611
2.805529220110635,61.8102700497866,1.887379141862766e-15,-432.586715023853
1.917393614463492,28.80330457079424,4.005715142918476e-08,-434.5003482635504
0.4089143602037626,17.31857515179155,1.580410012791411e-05,-180.4288376719398
9.600808001356089,582.9184376787252,0,-838.9826285161259
0.02164190267049236,81.90051231620595,0,-83.94701271514283
0.2271530463195514,41.65111064141155,5.455169649337677e-11,-145.9399292131552
0.3662469879188712,22.85514960644019,8.734034230850618e-07,-160.1679181636069
2.869663997351266,87.97956363151866,0,-495.2203985217366
3.939997944673835,155.0100639611876,0,-574.1646106340247
5.840566125974614e-16,88.76668669291035,0,-89.19882904890946
0.2048065326512214,49.8291057666186,8.386624728018433e-13,-122.8343579694731
2.564068925096546,68.74680981000438,5.551115123125783e-17,-516.1887612526535
0.6988350790168961,4.84454158356715,0.01386688153003784,-238.8816204423181
14.27368789192444,785.1964461077985,0,-907.9573735918306
12.27506334070175,740.02808414182,0,-883.9279724418963
4.004733053112191e-17,103.7289814906058,0,-45.56665444454746
2.376480940415706,52.7554692097516,1.889044476399704e-13,-459.2352828520256
0.702707595769503,4.402817234180077,0.01793980649107113,-248.6032593099314
0.2979106309335233,29.33725481200224,3.040759283257088e-08,-195.2234328359438
3.130168061010571,115.3912229049486,0,-572.9141322777456
0.1670429009312259,56.73285358608194,2.498001805406602e-14,-117.5928087062353
0.1092060356435476,70.485156902771,0,-94.37696403164688
3.229069544826999,114.1977638329192,0,-543.6972025989933
0.02191058789940955,80.69070703684389,0,-79.03931311377086
4.691782751375292,238.2840674224292,0,-673.583423285473
1.901450032634441,32.51955313653502,5.899966570854787e-09,-482.0628229364852
8.98138517045267,537.0241682925027,0,-796.8917732079564
0.04327579681242284,74.89641864604818,0,-104.4330562485358
6.987753962227554,432.9189593405861,0,-769.7917306839488
0.01923106126437609,93.08563744795433,0,-87.66455039719214
1.528502967385512,11.5359455749641,0.0003413167428758523,-416.0275912291734
11.63503615752593,664.8631258027149,0,-865.2256632610254
3.543265730736247,119.8341250375879,0,-528.822010049162
0.02291262878719076,76.76647689001103,0,-93.38640211174321