dN/dS,LRT,p-value,Log(L)
1.487545619962795,2.435870342495974,0.05929402946474599,-122.2389687229206
0.4023373585342805,4.548337261642871,0.01647536504824171,-45.00232612785881
0.2778001037254132,10.41249359567395,0.0006258280891575096,-59.33125501883404
0.3638768133303297,7.268920278309892,0.003507898299564216,-54.62982312843153
0.413656323317204,6.328229844082756,0.005941543352738554,-56.42420714491285
9.555848176237971e-17,29.21951091566019,3.231258016711536e-08,-24.62678191287824
9.555848176237971e-17,24.97634973127892,2.901894135542982e-07,-16.08195895752698
0.3711912564880455,6.938867437749195,0.004217124982391296,-55.99253407719101
0.07008538387856064,20.99500764998494,2.302408573684467e-06,-41.55417943299788
9.555848176237971e-17,25.88770758835938,1.809330983371105e-07,-28.37101888967426
0.6636184535834352,1.712979239816576,0.09529964262947321,-86.7345820776398
3.17603086687411e-16,24.7929126540494,3.191586979700567e-07,-57.07696601206538
0.07979260925570657,17.79652028013373,1.229162128607575e-05,-39.28154380000549
3.17603086687411e-16,29.1553107807479,3.340119059114244e-08,-26.06613070121633
1.168466792142696,0.3211765173724928,0.2854507287846626,-116.8166205420198
1.191896186714649,0.3970840757673386,0.2642995084024821,-114.5659247027701
2.731941657024047e-16,25.57277632305964,2.130037920489158e-07,-37.59139589042423
2.793772676546898,21.83131363536046,1.488508652114362e-06,-158.9185897682864
0.07979403490936171,17.79639211446703,1.229244929240592e-05,-37.03384081472024
0.0825227320709057,17.04389852804506,1.826277347438676e-05,-38.26468535932148
9.555848176237971e-17,24.24977308419865,4.230852584941047e-07,-29.29206737470462
0.3407737544787614,6.727679434785415,0.004746400982699073,-71.22639561677703
0.7879740053215126,0.6046234927750049,0.2184096859376937,-80.95515944055397
0.5590033221299117,3.265603614440636,0.03537349088692365,-70.56906937108506
6.728744545674702e-16,17.40503623744212,1.510123312614686e-05,-58.98632782004002
0.1561500870869039,13.99191907038876,9.179900831096655e-05,-47.41751285055338
0.2857301165825625,7.411905360702548,0.003239683337390109,-26.31991422867532
0.7704682000871795,1.020929232629101,0.15614934699463,-91.74479984911181
0.3228139204732444,7.623776736042586,0.002880186396012785,-60.58061680616249
3.17603086687411e-16,26.56419529850621,1.274623441238631e-07,-29.88109021627848
0.2248910281014113,11.57510821080128,0.0003342027304302775,-41.37198403669444
0.07783987940889113,18.37976069344538,9.048503182729206e-06,-57.71361183973418
0.2467924952437371,9.772552708968817,0.0008856817149302532,-59.55134882515708
0.07958631976911963,17.85730974132673,1.190514432597434e-05,-42.7108204516941
0.1098992796547557,11.65601530429186,0.0003199763393493815,-65.16241559251401
0.7154258266037723,0.8684411054321117,0.1756936191882164,-79.48119967030478
2.731941657024047e-16,26.62983228433502,1.232047414090331e-07,-31.32464301909495
0.06815365661629603,21.74831620168834,1.55431290960184e-06,-40.19667616806873
0.07511651671294738,19.15870734883396,6.014376113638864e-06,-46.61897902451607
9.682324783204268e-17,23.99584457251545,4.82719206384985e-07,-63.67309194604952
1.286804391936653,1.028580363074894,0.1552461664838688,-102.1243576324385
3.17603086687411e-16,28.48751573798964,4.715230356167055e-08,-30.977006101948
0.07672989561838606,18.71506536791556,7.588928920110316e-06,-38.4903171394209
0.6354384823085953,2.128487236181599,0.07229169272218539,-87.51144269681291
0.4861645184066906,3.961937457872438,0.02327005393996479,-74.72697356611002
3.17603086687411e-16,23.72643919444612,5.552324160440492e-07,-50.65501929164555
0.4285115325113538,5.748264238584966,0.008252478423006138,-73.5318816411432
9.555848176237971e-17,25.90249110330369,1.795527119208273e-07,-27.6292666022555
1.209707578208943,0.4403924122530327,0.2534665577592525,-110.2692277861805
9.555848176237971e-17,25.39687459896984,2.333367890572369e-07,-19.76946650058042
0.5901622986216548,2.630465832409044,0.0524154764539716,-68.83530270539838
0.06993141232529244,20.993929420859,2.303704701334119e-06,-50.80974934865246
0.3337946655306104,7.07850540493952,0.003900702656176258,-60.49611269339217
0.9912959588247172,0.0007491333664404465,0.4890821929463396,-111.1170414213073
5.840566125974614e-16,27.65297488624344,7.25743351526198e-08,-33.12398074915954
0.06812320681951844,21.75728382579858,1.547064549245469e-06,-42.81702154968578
0.1642905302908484,12.94535479003849,0.0001603581552135358,-50.07516235829062
0.07973718624525514,17.79353578282635,1.231091699455122e-05,-36.62585521202914
0.6898470901478829,1.385272647722559,0.1196025307074317,-101.130326349592
9.555848176237971e-17,24.90203014326185,3.01594353879775e-07,-37.84389500274082
2.731941657024047e-16,27.65662156553028,7.243764749143011e-08,-20.0603744314385
0.1639260869708106,12.99026236437902,0.0001565575460473756,-50.93821961584086
0.1131768336852408,22.29007262124838,1.172076775135533e-06,-37.14010709118369
0.5011394392588785,4.197637460556507,0.02024016919478677,-69.71603105335141
0.5664352575785189,3.104924117613422,0.03902793430204055,-81.64226598295984
0.07725303440816433,18.55352590307218,8.259968394541684e-06,-48.36997812362861
3.17603086687411e-16,25.4465334424991,2.274070778907067e-07,-36.75817050531875
0.2112411982964737,12.9096280574785,0.000163448122745935,-43.10657209776662
0.3302710227091359,7.244024515850398,0.003556867555397636,-45.43167506887207
0.302054022126404,8.787545747439324,0.001516470059198582,-50.92682621745646
0.07499203194984498,19.27941374289061,5.645864140313428e-06,-51.49918706814913
0.3449164769696415,8.233164090924305,0.00205658791326474,-65.23966300555975
0.1655558427627484,12.79597056289002,0.0001736833613071309,-37.22350611991226
1.042808485869671,0.02205442842759453,0.4409711989912211,-99.49078593716845
0.2756797326027218,10.57105298890109,0.000574361370262233,-51.82725790866569
3.17603086687411e-16,24.91140221363051,3.0013172852561e-07,-45.6946451449435
0.1003017019602369,13.21378999437954,0.0001389484251313466,-53.98953345716134
3.17603086687411e-16,24.24977308450188,4.230852584385936e-07,-46.16964344162471
0.1764816693618356,11.56108215624417,0.0003367332271513868,-47.07268147700054
9.555848176237971e-17,28.32951295844525,5.116199847110536e-08,-11.66399146959751
0.07464545503927901,19.39169270896122,5.323459321693313e-06,-32.92908652747464
3.17603086687411e-16,22.98564622396327,8.160774707666185e-07,-38.35976540151972
0.135562978113071,8.651891165239846,0.001633610303903799,-35.28808350592569
0.3441227208022763,4.969959542438602,0.0128956253720835,-76.88646949862608
1.489574668422561,2.516598127534451,0.05632668794296969,-137.1444090482057
0.3386439819673547,6.853094051774505,0.004424394982028568,-58.15203756162346
3.17603086687411e-16,24.97635106202473,2.901892132700645e-07,-50.72971913984186
2.731941657024047e-16,26.56419544686634,1.274623343539005e-07,-29.04689136589842
3.17603086687411e-16,24.24977058298573,4.230858078879685e-07,-40.43134344480866
0.8302078705767993,0.3613779973654232,0.2738709626834963,-107.1388399108783
3.17603086687411e-16,28.45452718473838,4.796259889250365e-08,-22.5253437858965
0.1868137793663427,10.57750565700344,0.0005723600404837215,-35.07600597380041
1.842208397454068,7.811851453925442,0.002595234974946237,-173.7807167452626
0.1439788080827304,15.84169497648617,3.443406136183214e-05,-39.87669117758731
0.07979476644095986,17.79661197827579,1.22910289103717e-05,-54.03837589974173
0.164226520581368,12.95288628774563,0.0001597143184307037,-38.97504384822656
5.114956077737342e-17,27.14532341104702,9.436058323597507e-08,-21.83297365533696
0.1295334692402464,18.50355253177769,8.479395146310242e-06,-55.13687789340261
0.521240604975591,3.680418386246458,0.02752751671430076,-69.68025728495128
9.555848176237971e-17,28.39383646723442,4.948996656928273e-08,-16.49163917879486