dN/dS,LRT,p-value,Log(L)
5.840566125974614e-16,35.14582830243748,1.529580240244854e-09,-113.1610283701309
5.840566125974614e-16,54.9167346897807,6.289413434501512e-14,-67.83741793881038
3.17603086687411e-16,51.15905000927845,4.2588155224621e-13,-71.23495585507531
0.8220145302136738,0.8862679071971797,0.1732453387772865,-159.3867781411201
9.555848176237971e-17,59.19216151526918,7.16093850883226e-15,-44.8965812403769
5.114956077737342e-17,63.08997846596885,9.992007221626409e-16,-45.83013270304449
0.2951770711750433,18.6048948176047,8.040356483884903e-06,-191.4169020946692
0.03764312248052804,44.08438205670177,1.572603158805919e-11,-57.88932758705327
0.03878290136358834,42.59534411648599,3.36597416605855e-11,-107.7193408100032
0.1592412471802832,40.61400448976573,9.273631862427578e-11,-76.07072867404293
0.06978619636164521,42.19749543374775,4.12528344817531e-11,-71.12752626150818
0.4943943608700528,8.208827617891131,0.002084353852969234,-126.5799829388483
2.731941657024047e-16,45.03948148735128,9.655110044803905e-12,-70.10476406940599
0.7181245766690633,2.406843440732814,0.06040287050654097,-172.4952010660783
2.731941657024047e-16,59.30290358619317,6.772360450213455e-15,-56.80383430709024
2.123696750478731,23.42252483655238,6.502342388969851e-07,-315.7641131331792
0.3800218539303092,11.70491316804498,0.0003116764514096149,-162.1107258340353
0.2755436105042336,21.05689885792745,2.229223495853194e-06,-91.00617151477576
9.555848176237971e-17,58.52916194404229,9.992007221626409e-15,-58.50547885900297
0.06708250071074053,44.26547543312222,1.433642093928711e-11,-48.26250299697377
0.03195879320048826,53.19975764533638,1.506572644416337e-13,-47.40929417447622
4.004733053112191e-17,62.25664236627134,1.498801083243961e-15,-50.95550596822322
1.560263406006317,6.896861491830578,0.004317360219774802,-255.8420389186107
9.555848176237971e-17,56.48952557973793,2.825517597671023e-14,-59.33342082022718
0.09882372988475104,40.33738702575354,1.068402588622064e-10,-57.40668893086709
0.1107636503840924,34.51675928062838,2.112985064695039e-09,-85.56011875539996
9.555848176237971e-17,58.41724108423583,1.060262988517024e-14,-48.39456730986403
1.147016539062229,0.701311104000979,0.2011717473786999,-268.4568939896192
0.2247592057418499,15.47543395034205,4.179227398476426e-05,-128.0774449525631
4.004733053112191e-17,60.41965882373765,3.83026943495679e-15,-57.82347795714608
5.840566125974614e-16,35.15821557374343,1.519881442924031e-09,-105.7982670454162
3.17603086687411e-16,54.00223661989273,1.001421168211891e-13,-87.42878142674017
0.1439350946597932,23.79241945400716,5.365211566132899e-07,-71.46931066096504
0.1798981995557324,28.04340182241199,5.931243851620138e-08,-119.4142713036435
3.17603086687411e-16,53.79861971011749,1.110778136137469e-13,-75.18244703461345
0.9063962191060454,0.2538286096579441,0.3071960223690549,-197.4097912326893
0.2460743799500617,22.9064387544156,8.504058668368231e-07,-111.9674655762232
0.0356227282533704,46.9479466541859,3.644862189844389e-12,-129.5026140414499
4.004733053112191e-17,58.42812548639517,1.054711873393899e-14,-26.49615379863196
0.6864996520229455,3.315052445423078,0.03432406518173287,-176.7620933176391
0.1236162985146669,19.71132066427188,4.503311877068761e-06,-77.17012565765333
0.03875741976969648,42.63040435648483,3.306177553952239e-11,-81.05345323455585
0.03872714941978578,42.69313005408529,3.201838794097966e-11,-70.10660213252118
9.682324783204268e-17,48.09365230335965,2.031708135064036e-12,-87.229784897542
0.8123244118538208,1.099205894319823,0.1472202217091537,-193.1814621476927
0.4340860183713758,7.395038498935264,0.003270201251109883,-190.54059248327
9.555848176237971e-17,60.4271494955791,3.83026943495679e-15,-38.93715976898244
0.2858203925808834,14.77403863455586,6.059628490590052e-05,-74.69504422370132
0.2810222961071228,12.73202555991162,0.0001797235164217037,-135.0716089504108
3.17603086687411e-16,56.04324070774371,3.547162563677375e-14,-51.79833622209847
0.2260838941713286,22.92838609621384,8.407513907848774e-07,-124.9383586585325
9.555848176237971e-17,55.687155159257,4.246603069191224e-14,-101.7709370262396
2.642312612176426,45.16802855840524,9.041656312547275e-12,-378.7711387210885
1.458572659590931,4.543683497031566,0.01652021023278272,-262.7649812040994
0.3382653663568565,12.05782143622184,0.0002578776477127898,-73.31886070408201
0.2918480877175754,18.73903582894059,7.494131330276765e-06,-99.42816487302059
3.17603086687411e-16,51.15900397409536,4.2588155224621e-13,-102.3078193590969
9.555848176237971e-17,53.81977792232892,1.098565682866592e-13,-44.22017834516935
3.17603086687411e-16,52.40281405483677,2.260414078136819e-13,-104.529151697557
0.6483297087197301,3.635569935724675,0.02827861848218305,-167.320604949396
9.555848176237971e-17,58.95304118034657,8.049116928532385e-15,-51.53200847735423
1.093051435499466,0.2178966998761211,0.3203236109683344,-194.2273667211276
0.499345950763552,7.962939017843098,0.002387241216938341,-147.5612476103486
0.7557976447816699,1.689370792537147,0.09684196669550066,-196.5916690003797
3.17603086687411e-16,51.15887415098007,4.259370633974413e-13,-77.80524460199696
0.03344099044345923,50.4705545510989,6.048495038157853e-13,-86.90886082201057
9.555848176237971e-17,34.99670027408811,1.651322634188546e-09,-104.3420235830363
0.2837827282316903,17.43969558073508,1.482837665484071e-05,-122.4025498481801
0.07388054325228915,39.23386237372196,1.879814637284483e-10,-64.06393250018891
3.17603086687411e-16,53.05249813163115,1.623701173514291e-13,-78.04173961011367
3.17603086687411e-16,63.09358303288572,9.992007221626409e-16,-44.87970120240669
0.07487233663433913,38.57280202708003,2.637444707076497e-10,-69.94800411165457
9.555848176237971e-17,51.28029503212366,4.004019338310627e-13,-95.9679994071398
3.17603086687411e-16,54.91673682079244,6.289413434501512e-14,-64.87569605997275
0.357804329448517,15.12534389521068,5.030179744397456e-05,-132.4370434466221
3.17603086687411e-16,59.30650050930701,6.772360450213455e-15,-46.92427789036814
0.1129027009819318,33.65410312837599,3.291793060355985e-09,-102.0662604448463
0.326250103653309,16.75821464858245,2.122902368717483e-05,-138.401268745328
0.582026833266244,5.900804998777289,0.007566983169685293,-139.4992073968126
3.17603086687411e-16,55.68719178142038,4.246603069191224e-14,-111.9731782846801
0.1851571454540774,26.75314794117415,1.155874129743495e-07,-115.3837773886601
0.4550918980137899,10.47282800002978,0.0006057156562410682,-150.8266102194906
0.6864262165169753,2.838288758743715,0.04602109447355013,-158.0243189190929
0.6400978882908513,3.880540928932419,0.02442440823657466,-148.9056825681149
9.555848176237971e-17,62.25478924757822,1.498801083243961e-15,-55.57448982937758
2.731941657024047e-16,63.09502653903243,9.992007221626409e-16,-36.96138947579269
1.555120952347084,7.256278487751729,0.003532677663935779,-260.7511308254207
1,0,1,0
0.1423873863426691,32.03805995214213,7.559071812934803e-09,-97.28603478787109
0.441463133208782,10.5637406482642,0.0005766378915061376,-118.2106792144934
0.1021304208908214,38.54800680377021,2.671164955891925e-10,-48.57139391508364
0.3787549183431236,13.16301848759548,0.0001427642816379526,-158.4376770867537
0.1088445187617236,35.37660515822819,1.358656298577898e-09,-98.24398402884556
0.2274500212692046,15.15313781654524,4.956671260580858e-05,-102.064567146708
9.555848176237971e-17,34.46980203861281,2.164579793184629e-09,-79.78418694513915
5.114956077737342e-17,75.43223988262758,0,-18.66555272106161
0.1070327797251,36.19644419634741,8.919788241357196e-10,-88.54343539210652
1,0,1,0
9.555848176237971e-17,63.09165082386615,9.992007221626409e-16,-57.32542124625858
9.555848176237971e-17,56.36390756646671,3.008704396734174e-14,-81.21025844189917