dN/dS,LRT,p-value,Log(L)
9.555848176237971e-17,13.35462103483368,0.0001288933147459703,-22.63049968542109
3.17603086687411e-16,22.47617357593732,1.063832108239016e-06,-36.92856535784958
0.2272150259758717,11.47802878847131,0.0003521189213960274,-47.11470782231265
9.682324783204268e-17,23.05273463119939,7.880908099999751e-07,-39.80507303090894
11.78528288824556,346.075996732033,0,-479.2258252098906
18.39847075860376,601.9397674944562,0,-599.8113700768773
2.097701585978624,9.922533136000879,0.0008163376159834868,-167.0735309218975
9.555848176237971e-17,26.51960047196128,1.304388612122231e-07,-30.96233322913106
0.08553683629718685,16.39963841879928,2.564750686823158e-05,-47.98448664779202
3.17603086687411e-16,22.76051139712757,9.17488482854445e-07,-37.16843582635815
0.3035248755291058,8.789512839851852,0.001514835721249552,-48.80531790337486
23.48489872103119,803.3157790936934,0,-699.688076648722
9.555848176237971e-17,22.11809277122916,1.281909708605866e-06,-26.2450848063709
36.91021048006557,1127.922931439683,0,-762.4999146402066
3.17603086687411e-16,23.35447960522551,6.736468949330998e-07,-39.80707999179281
9.555848176237971e-17,27.16836195318177,9.324278210653958e-08,-17.71859266310563
9.555848176237971e-17,22.1180868971451,1.281913631079323e-06,-31.46903536350727
0.4655706667539671,4.584264870477341,0.01613340476189484,-65.50494549368642
9.682324783204268e-17,22.47617404415017,1.063831848890917e-06,-42.46642268826842
4.701577983415687,76.49122631854635,0,-253.2536688022294
2.364164633466785,14.66567323135581,6.418140670710892e-05,-191.5843976289148
5.114956077737342e-17,22.1180927021124,1.281909754735633e-06,-15.66170701067776
9.555848176237971e-17,22.11809272796917,1.281909737471665e-06,-34.95278547092351
1.209671846913544,0.4055802055489721,0.2621106931488311,-134.5354874387801
9.555848176237971e-17,22.11809260244172,1.281909821293503e-06,-47.67093492678329
7.738165827284461,180.617963387368,0,-386.1876716182771
2.044754943288205,9.743134942919028,0.0008999683122791757,-185.2067266575295
0.1865739398585571,10.67500298287449,0.0005429650650020656,-44.49667336171395
21.19983472764907,694.8573266754443,0,-599.7598273175252
0.4315822231281541,4.746109407233291,0.01468230694101913,-62.26733070570558
9.555848176237971e-17,25.2274138152592,2.547638849326184e-07,-16.93128936024248
27.85824958335739,967.2174115095365,0,-728.0570049958779
9.682324783204268e-17,16.85077180650278,2.02184411027817e-05,-48.09758843085827
8.4336438209983,217.5514680371368,0,-412.0101543834478
5.840566125974614e-16,19.27514644008009,5.658497025828879e-06,-34.83333259362459
5.191197558156668,97.90958059608636,0,-295.9653055666218
3.17603086687411e-16,21.76071942415811,1.544296614364171e-06,-55.74355617304967
4.245871267354597,64.24101042454407,5.551115123125783e-16,-255.3336656426919
0.4612967613901103,4.031973469148284,0.02232284360356357,-65.63355857825721
5.686748064388328,109.9543789964748,0,-290.3915380832893
1.102378300148471,0.1004239408596277,0.3756607402087762,-103.4783621204812
3.751846337317593,52.47494273958716,2.17881268582687e-13,-268.8088513761664
24.13593574404012,830.1201552686468,0,-677.8683876278384
3.710242367978762,51.74491084155716,3.160249839595508e-13,-242.2373239312439
23.6184673320851,811.2434067051038,0,-658.4670212601214
0.08909973797174646,15.56496157990693,3.98591407376192e-05,-27.07426790878499
11.24556725962685,271.5876768455126,0,-396.0030545695718
1,0,1,0
9.682324783204268e-17,23.69524668604114,5.643047190084793e-07,-37.02912192726404
0.08528323374458564,16.46304399784101,2.480383954100995e-05,-48.3574213355156
1.201280621484065,0.4727537693105148,0.2458615131871185,-100.4622492177957
9.767601388186096,281.5797117244728,0,-451.9211014735188
0.3703534577270298,7.045611851096012,0.003972983836735333,-53.71536374828553
1.609493799925406,3.475521146118552,0.03114155029615895,-125.2020265220323
9.555848176237971e-17,23.69524671236619,5.643047112924293e-07,-21.8764001346863
1.168482889765682,0.2971929729994827,0.2928237747592076,-121.7328168789321
0.9017726588946346,0.1651505759216718,0.3422290527245373,-102.1792515158276
0.08659300810550097,16.15019717195826,2.925623908445196e-05,-24.01158352683003
0.4871692346021125,3.981668950086032,0.02299898296646719,-80.50152633129704
17.59588067537459,521.3454079533606,0,-543.1450046553483
0.9136918599264651,0.1002072193350045,0.3757905521783457,-103.4452393387931
17.64041382276386,568.4020764426707,0,-573.7999395799623
3.064452789262345,29.15049841987576,3.348425681171108e-08,-211.2850679903024
9.555848176237971e-17,25.22503619088636,2.550781470489483e-07,-25.71197549214707
10.58276059856689,298.4250548961452,0,-444.5040218483409
0.08535193827649358,16.44575264448423,2.503110968543609e-05,-52.80231039096459
4.857826162995844,83.71411361929154,0,-294.369706031496
11.89905518650175,333.7775192996319,0,-467.2997414473233
0.4398492528091306,4.501469291010409,0.01693287136272531,-79.20456768942728
1.816577624341654,5.853447844145421,0.007773281563553835,-151.3562608996063
0.2730840687707829,8.150488679785127,0.002152477935400854,-52.68890899942035
0.7132734944080087,1.019919503443788,0.1562690519860084,-99.95963567184407
3.350240830946016,38.12713757430276,3.314091778783279e-10,-212.3938242882179
0.1532770464784217,14.54448533446961,6.844436574598989e-05,-44.38471070280586
9.555848176237971e-17,25.89501445107739,1.802495074865185e-07,-17.51194042368632
3.17603086687411e-16,28.46534772449295,4.769528860748551e-08,-26.77451376968232
39.11689113205109,1258.301996846753,0,-853.4528725243938
3.17603086687411e-16,22.47617459369732,1.063831544523275e-06,-26.85355707349856
2.085756210473238,12.7640848386024,0.0001766692121453195,-187.1543139219805
9.555848176237971e-17,22.7605006890271,9.174935952094287e-07,-42.31016166148449
0.2211525404547378,12.04166085315376,0.0002601229850364151,-39.97355835095594
9.555848176237971e-17,23.6952467389821,5.64304703465357e-07,-27.93504459488829
34.89171174591372,1093.710125740042,0,-737.5089734594536
3.17603086687411e-16,22.11809251365941,1.281909880579413e-06,-53.89927671922055
8.332543477430443,212.335325659826,0,-399.826319713329
1.037759154111429,0.01617114290621657,0.4494045831693217,-104.3356111156479
13.35194674277189,423.242509894596,0,-526.3087256878071
3.937062137140579,50.96971575967621,4.690137167528974e-13,-222.4561279780873
3.10416614265877,34.25011013279186,2.423240053062159e-09,-251.7362414671324
9.555848176237971e-17,26.87982393817176,1.082536673080448e-07,-26.26552030684301
9.583567006999267,255.6845390838166,0,-414.2105270873769
3.17603086687411e-16,23.05273465281874,7.880908011181909e-07,-43.42520198985238
0.08772726553293644,15.87760237327623,3.378685184390884e-05,-38.94243100743757
3.17603086687411e-16,22.76051190681261,9.17488239493558e-07,-37.25039301557018
2.241906373964603,11.57766446771251,0.0003337436193807108,-161.882616254152
9.555848176237971e-17,23.05273465122976,7.880908017843247e-07,-25.92033101902903
1.534507237804805,2.379548341101611,0.06146654243414318,-122.6134141328087
0.180698482155928,11.24982461447846,0.0003981526981592931,-58.05919250898278
4.004733053112191e-17,26.52356198938747,1.301716505142103e-07,-28.15500022577906
9.682324783204268e-17,22.11808738840897,1.281913303063931e-06,-32.42954397741762