dN/dS,LRT,p-value,Log(L)
14.36703323173895,147.9415666878949,0,-240.0813549575235
0.315048551155399,2.03554076191794,0.07682976337433073,-14.5892513172323
19.01694811761821,236.4385223284631,0,-281.4273674447653
7.636953171767142,41.74489629948943,5.199668473565566e-11,-114.2512818302648
6.74573987360644,37.89462567096021,3.733532927263639e-10,-119.3821655285815
1.858633269672801,2.204550968429373,0.06880197850754538,-63.306939383638
22.05683010150184,241.8534034308517,0,-257.9146868109165
2.381632388790367,4.015677056484876,0.02253956011168068,-49.98042563886873
17.64424090944629,213.8623090330628,0,-269.0939000690968
0.337725077521797,1.748466991769938,0.09303478451606695,-26.33435541053818
9.356507236718899,72.08715939373405,0,-165.6593813825899
9.682324783204268e-17,6.501782875297913,0.005388318777260592,-17.02194769849585
3.113220738021734,9.108777283055332,0.001271929292692042,-70.49842622691676
9.682324783204268e-17,6.366736805553955,0.005813961364396991,-24.76956351194349
3.720954642446593,15.09977328589909,5.098776746276235e-05,-90.67272492283355
25.79515959481701,258.5971261230172,0,-272.4740803067328
0.5171099921403668,1.095748137459537,0.1476005538134437,-27.70295832143915
9.682324783204268e-17,5.712457433233233,0.00842247139621688,-18.11394253953329
1.948757233770202,2.15843929270801,0.07089432066049273,-56.40946502427385
24.77694218561618,307.2036843805605,0,-300.6326701967109
1.101018109027609,0.02686690967750849,0.4349004911685554,-33.20615821998553
0.9454890362487627,0.009587060437674211,0.4610004759257604,-29.4833110389212
0.3265307817180552,1.88405307954902,0.08493710152681483,-34.78385939638063
8.570429871036668,78.08454208571396,0,-177.4574787459501
0.4235556917256333,2.00464757218748,0.07840886800090824,-20.77234183928974
71.52936958918137,1055.81321561867,0,-571.6827798720059
5.852672077304453,35.46437250099737,1.298792906556656e-09,-122.0414552832425
5.840566125974614e-16,6.885765395163943,0.004344242763003658,-11.06401383402851
0.4642245253228546,1.544513486560732,0.1069736150707956,-21.84203819132563
4.901040066718311,28.46775041143604,4.763613553615542e-08,-113.0772728247629
4.844448691554586,21.875704781015,1.454468116279806e-06,-109.3223970983984
2.588036416691923,5.382982495394572,0.01016704369523752,-64.99267686429583
3.894708290880224,13.51795503838773,0.0001181458804354607,-89.98417136348378
0.8685946944471413,0.04155826218489267,0.4192320628714346,-51.04461896559307
6.087110982616072,40.58183113299265,9.427586489252349e-11,-130.5026544533795
0.9580489376022538,0.005578006209873365,0.470232253195033,-35.93865492594437
1,0,1,0
9.801673646869062,77.09991133642461,0,-166.1325426125072
9.682324783204268e-17,6.501782876366576,0.005388318774021961,-11.43473143888673
3.657041362806057,13.63892706281842,0.0001107720001552459,-80.76162441579433
0.8081974384298664,0.1459746950964984,0.3512060756817675,-42.69627942660738
1.117285134336286,0.04733404324252888,0.4138844637396561,-39.21864697103489
3.485568304764091,11.73822108235936,0.0003061476028629051,-75.94892307874666
9.682324783204268e-17,3.695550955020963,0.02727888054662209,-26.8234916008257
5.495387455484345,28.22777540361548,5.392291207995115e-08,-105.356202986682
0.3454238000668073,1.661494980691636,0.09870079773869284,-31.60408724723095
5.173376679887625,26.65665445505002,1.215061959380925e-07,-110.212927193524
4.084320015599309,14.305166170581,7.771885212154439e-05,-74.59721760214312
0.5854847757162889,0.6894604753344638,0.2031739768654337,-24.45866665159182
15.81812484359072,142.3834584679823,0,-200.3746906131573
12.09561797138984,108.366752965482,0,-190.1937748886119
0.6378552291222761,0.4711039568210396,0.2462398673939778,-39.8824300380361
9.682324783204268e-17,7.020372988619208,0.004029372103942552,-24.33433657964573
5.231012179287653,20.23594721970125,3.422722695434199e-06,-76.96956258854381
26.94600275743615,395.8992019965426,0,-378.962523807544
8.117039948530961,82.35683978697983,0,-191.6605607187873
13.70659413961274,120.0745477922359,0,-201.0251046287352
3.251821000248254,10.67276231400436,0.0005436231657721113,-80.97305101504421
1,0,1,0
0.3251942915861034,1.901036664479875,0.08398116463072119,-20.42543550221153
0.6505077740908085,0.4283752697647287,0.2563936286903663,-27.54353391039593
5.032148507306479,24.33898632407733,4.039366110486498e-07,-111.1707308614247
18.54560767204577,211.0888307793213,0,-268.8821302361124
4.344926569537238,16.71755772448918,2.168884270614679e-05,-84.05237769654272
1.053395289353858,0.007963114534533133,0.4644470646274338,-42.41885501464804
0.8828222051335614,0.04851022653019754,0.4128380841020512,-28.96118414713297
5.840566125974614e-16,5.459976136612998,0.009728456246694717,-10.34520051425519
3.464566854118637,10.58879578643155,0.0005688753017602521,-76.37136938068271
2.623093227128207,5.512563305566033,0.009440178400568322,-66.48007522100413
0.2634974055290387,2.918911139305386,0.0437734610766029,-18.97346314409506
5.840566125974614e-16,6.501782875996788,0.00538831877514262,-17.7067088921538
1.028145822447522e-15,4.461991182691534,0.01732853800986778,-24.65209513194094
5.580276878681452,30.41374244898213,1.745233096928089e-08,-110.8273506565523
9.682324783204268e-17,5.365415960034447,0.01026994451371233,-12.78370897031343
1.441981493593626,0.5937419676160403,0.2204878800977167,-52.92619831574743
0.2873938283264313,2.461978430614622,0.05831589756516131,-32.78879625575565
4.081609544999671,19.48204374336271,5.077491231908482e-06,-96.582085748075
2.731941657024047e-16,7.020903552536609,0.004028178343305988,-11.47300896374829
1,0,1,0
15.20366581837443,145.463419252339,0,-206.2070215340125
1.408650741307877,0.4191710865835887,0.2586754729991989,-32.21989654185877
0.3616073275556704,1.495014064644664,0.1107200631057041,-13.61840235095082
4.560326848810258,19.08120408147352,6.263629604374987e-06,-87.43716589520912
1,0,1,0
4.290095771203835,10.69400703503973,0.0005374157384797629,-76.79104024852349
12.43298040896532,76.38655848622329,0,-134.1963381241998
34.52868121555298,489.2285734068863,0,-409.9358699848264
2.731941657024047e-16,7.235536933459947,0.00357372157101421,-11.29141189909362
1.631968298993129,0.6138542032351211,0.2166701570865556,-33.83111170461062
3.874114615953246,13.42552680691387,0.0001241116503998829,-74.78531960563564
13.99037044820383,141.3139531899336,0,-219.2831660642609
3.966898585133727,13.81448608980028,0.0001008872532285987,-72.0119586684628
7.642331801831522,45.44469290669059,7.850498029426944e-12,-132.4187986468093
0.3075464607284207,2.142166583265421,0.07164969261297938,-35.08621545396757
7.497599527831139,52.63558071859472,2.007838340034596e-13,-148.7234743215743
4.469065837994739,18.67338994136568,7.756622010524072e-06,-84.34503374327124
15.6316956486229,123.1574273329217,0,-194.0436590259226
6.728744545674702e-16,6.366736906374314,0.005813961034065118,-18.8901444846654
5.296001699066933,27.28113158389056,8.795986683463042e-08,-113.1039389179231
1.351685218650631,0.3285797841937637,0.283248280862097,-40.93719244167796