dN/dS,LRT,p-value,Log(L)
20.33101135008,858.7858779430915,0,-979.9972858690061
5.890947638342776,357.4572428277356,0,-785.767338047925
9.682324783204268e-17,88.2275330679762,0,-132.8526367551951
1.239321073940895,2.834418901939557,0.0461320856599774,-391.5244555971724
6.059383659236562,340.9436554966453,0,-767.8140806632252
0.9310369455563735,0.2597223722195849,0.305155476489212,-332.0595169617123
0.04343109028152917,111.7859187746727,0,-93.0332584229337
3.17603086687411e-16,99.91337452413904,0,-89.64729810626412
9.555848176237971e-17,114.3694236931552,0,-88.68923819574775
11.07083099645285,652.751595460358,0,-867.8266929087057
0.5195717297181361,14.7318901524435,6.196611305070432e-05,-276.2177026430753
1.006401764610394,0.002285452295382129,0.480935266238307,-341.5407420345398
7.539371970243399,473.9650438252388,0,-838.0906818532671
9.132374912249663,587.988546257395,0,-900.2110902443336
2.110077707482257,47.41006839833426,2.879307903214112e-12,-518.8574973593079
4.004733053112191e-17,110.5736161124958,0,-71.95969543931814
2.298088078503376,56.66490018998979,2.581268532253489e-14,-519.2592352521241
0.1021325512279968,89.82245564616903,0,-115.5089678974786
3.17603086687411e-16,110.6050119626237,0,-101.003716778738
12.23143323564929,750.7921873945636,0,-909.2007135673733
0.9062135238787427,0.5351223804633491,0.232230614923902,-326.087800005213
1.516805974402256,10.29277258827426,0.0006677613359060142,-404.855320281518
2.731941657024047e-16,109.2985319165521,0,-103.0622481186678
1.843763237323921e-16,111.2307760733333,0,-81.63546372272125
38.75687628594704,1081.16864605877,0,-1020.891902957964
0.4602172552635645,21.75915778811282,1.545554150439443e-06,-225.4723886146543
0.01749857540400397,102.6788247924361,0,-105.938444457534
0.6959315385642972,5.958036392810982,0.007325174427665226,-253.2072560207983
1.933538872984768,32.92936953173933,4.778426709872718e-09,-491.3596549413236
2.138423727132838,46.24704162492367,5.212164033707722e-12,-514.2817732556201
0.03520535502144505,94.75458457408635,0,-117.7080595787703
6.424324537823265,400.0862655379265,0,-835.3619577316858
4.246705180546345,229.7575520697198,0,-710.8249878493315
2.391964062824558,57.92633416393642,1.360023205165817e-14,-530.7524634438643
9.555848176237971e-17,111.2301106632966,0,-119.0002404415636
0.4967866116335054,15.31221516338655,4.556267994576535e-05,-216.9596637743244
2.652094709703054,84.88409636605206,0,-546.1261173623502
4.004733053112191e-17,140.6362783633829,0,-54.50563427385216
43.36576885867299,1028.735293823978,0,-1020.513817644308
4.004733053112191e-17,109.2904129723713,0,-86.89319612037082
3.889044957895133,190.0536307997643,0,-690.0160834465487
6.740639792367023e-18,141.3976584481779,0,-49.23477568094086
0.4152087567536029,27.91229890691244,6.347016429097962e-08,-218.1292572106812
0.572536801531874,12.17645800804377,0.0002419822784169301,-246.1709534988442
1.749180161011399,24.79861514134404,3.1821588813985e-07,-469.681265571643
3.013560750343397,117.6054273072618,0,-622.1683673598735
3.61708103977144,170.2616864779291,0,-657.1881134014627
0.955707424023964,0.1049520774184884,0.3729829928781401,-348.3598794975893
0.7653417439372299,3.127565994202541,0.03848929604529794,-322.5349261582236
0.1609972693880277,59.88833911055434,4.996003610813204e-15,-140.1700027584302
0.08973884830181346,76.13245891322859,0,-111.5763450676964
14.76042427405552,710.9196337067613,0,-944.1343750079985
9.555848176237971e-17,88.38517597023076,0,-105.4167465971521
1.773139117249147,25.23830790133991,2.533289173434206e-07,-466.366239574876
9.555848176237971e-17,110.605227333711,0,-92.42952369012666
0.07463093420338382,96.49408585306006,0,-92.20667210984776
5.662268694322113,365.7684257094456,0,-777.1094458991995
0.09699443059652121,82.57106193321079,0,-96.38935588124852
1.167342158730595,1.111636269267592,0.1458632681972336,-325.3193851921241
9.555848176237971e-17,136.9575658942948,0,-85.32211923591338
1,0,1,0
0.03592706621394545,92.70205894130649,0,-80.67592299624877
0.4761048180243843,18.21088845758641,9.887254610707608e-06,-245.6988528227697
0.07237255568003904,100.4886541262104,0,-113.791323795055
5.301379066167081,316.4345461937182,0,-737.4519115404975
7.170053133810807,483.964593502066,0,-831.3797101780139
3.625880015170003,174.1524002240883,0,-659.403767600017
0.3585509351563455,31.4633578334454,1.016198025727277e-08,-199.1245030336178
7.847476351370721,512.9268920149229,0,-848.0889648990101
9.555848176237971e-17,92.7664241447184,0,-81.73562033750694
4.004733053112191e-17,128.5586332747989,0,-66.46054455330295
0.1092730003617008,81.90125029220383,0,-112.6738247519922
3.17603086687411e-16,75.39205231456748,0,-117.70286688761
5.124960796667246,282.4392060969653,0,-759.8344488236185
0.2545775287977,36.58398120089714,7.311422578482052e-10,-220.0223367100617
4.651896086063427,269.565062652757,0,-761.887592349082
1.463188369732982,11.13571205604705,0.0004234070854360894,-456.6496759255086
25.18624537560678,890.5857651554243,0,-1014.449067317986
0.3864843450301662,32.37181526511381,6.365989957402007e-09,-216.6249262452808
6.821519323014389,431.8901083659425,0,-789.6857115171017
5.935430026909536,370.358851638679,0,-825.1041959549837
14.01158334321041,774.2556716139181,0,-946.8864290804717
0.2296632127449632,47.99950850367497,2.131628207280301e-12,-170.3275110787398
0.2686012248608973,49.85617697183415,8.271716644969729e-13,-166.9216561351961
9.555848176237971e-17,115.0085040754481,0,-72.33103892126178
9.555848176237971e-17,111.5515012131119,0,-95.92152636257141
4.937907102663062,292.8626908408612,0,-748.7901313066129
9.555848176237971e-17,122.9531182631122,0,-85.29016975425567
29.34760453171472,965.8994128884469,0,-1010.800711104429
5.845952885318459,353.5408868527099,0,-762.975839503632
0.2133632895450863,50.86018591731477,4.959366251000574e-13,-158.3402907318258
0.01758139144360277,102.144412861922,0,-113.4691651887296
9.555848176237971e-17,127.9488061878582,0,-79.7098052814103
1.60407452191238,15.92553044772478,3.294199982367685e-05,-461.9026183267333
8.447850780330098,564.8075263528863,0,-875.7278358004576
0.7714621179042641,3.215274025093322,0.03647698749039907,-308.2776616199528
19.7369457725453,909.7012132727846,0,-976.2938693493172
0.7972145401704726,2.258881862571684,0.06642497555122884,-296.0736891115973
12.67577397499036,761.4168995004018,0,-979.4324200685622
6.401076577238213,408.1976219420299,0,-862.6437331672703