dN/dS,LRT,p-value,Log(L)
5.01918782453769,18.74115152991891,7.485821562958073e-06,-57.0111461655557
0.9331759884165447,0.01415481234727878,0.4526479777741896,-20.02685146796475
0.8793879567351175,0.05018782108182052,0.4113683864379009,-28.59528774303482
5.840566125974614e-16,8.826301629591001,0.001484597642054886,-8.578340475891274
3.368957685541919,9.459701540535818,0.001050176221296439,-44.4760859060111
0.2618020449319702,2.881941060597462,0.04478899087136157,-17.11427569842304
1.254544477446415,0.2252220932800384,0.3175447155902749,-29.64965122967495
2.731941657024047e-16,8.382326448102223,0.001894435650796,-8.560522374891914
1.827884806049542,2.099714255753568,0.07366333460897223,-39.31405445168274
7.719491428538493,28.255729642053,5.314975620729356e-08,-51.808584900852
9.555848176237971e-17,7.872880107781729,0.002509083207929586,-8.548576437773349
3.17603086687411e-16,7.445029451578357,0.003180593908205021,-9.240264442763349
12.8329353666823,45.75502186879433,6.700251464764051e-12,-65.32792191933029
4.33737023661305,12.50233503906288,0.0002032218500374605,-42.97310987538707
1.152563698564997,0.07382879442684498,0.3929207579956447,-31.45850948895005
6.983350830314714,26.4674869309072,1.340056219323316e-07,-57.75777766464812
1.105555970235522,0.03710936825576994,0.4236212725953047,-25.46397965283272
2.312605148467436,3.544066299905225,0.02987939571139331,-36.34885875651101
2.731941657024047e-16,7.389666853602975,0.003279981890492556,-13.54817348386373
118.5013586017024,52.74734968142472,1.89681603757208e-13,-62.93765402575347
0.8050709339400777,0.1469295729385465,0.3507435040510768,-22.82797811572848
9.682324783204268e-17,7.445134593978995,0.003180408108852728,-12.11623197634714
3.17603086687411e-16,7.070759324234807,0.003917602146821741,-8.386321702097836
5.544709626178422,20.10340157118046,3.668303770354431e-06,-51.25880927031717
1,0,1,0
7.140818864956112,26.26509904664644,1.488093945845037e-07,-54.79434241519695
11.90226501911299,42.05875945785981,4.428579725157533e-11,-56.81569286763423
7.110385474518259,31.05997409941965,1.250887210479945e-08,-57.71721199253677
0.357442302122562,1.491509826819204,0.1109911747291538,-17.39979823474736
5.717261544649813,18.54558074413664,8.294469413749894e-06,-54.15609458084286
1,0,1,0
1.394281818823274,0.472911663772777,0.2458253539806191,-33.4073147288141
9.784745702666159,36.77162704851938,6.64045485265774e-10,-48.54519171516249
5.404791076367348,19.86005213636398,4.166171223507487e-06,-45.60499168169085
0.29584866299967,2.479034499590298,0.05768652851522171,-18.67349731291091
0.4811589790684595,1.357317201943317,0.1220014878026165,-19.42587974191802
4.467120844846481,13.77568101892703,0.000102992727594009,-47.68113492494118
9.682324783204268e-17,7.956514896808486,0.002395729350304354,-19.73367588268991
4.651819693271153,14.37769462203465,7.478175937047915e-05,-45.50817283684665
3.333610768084746,8.242737492487294,0.002045768866510866,-42.4975390091864
1.23022139598475,0.1550484877731506,0.3468783927281998,-22.46235258449875
0.2231231697599172,3.884286134614634,0.0243699893602613,-17.62806687873584
9.555848176237971e-17,9.333541689083454,0.001124985365101805,-8.400953744717569
1,0,1,0
1.444223038059565,0.5695015233653749,0.2252285328820464,-34.48079188672641
4.44935259640055,16.02794156817362,3.120726555688735e-05,-43.65048324140177
0.8464078041124808,0.08491273794235354,0.3853735090436252,-24.14808952638758
0.2633707593554256,2.861881529135349,0.04535067413093102,-13.71842340479866
1,0,1,0
12.83230383286304,40.29328704482377,1.092793633361566e-10,-53.41236278054962
1.365667808141943,0.4164943471888307,0.2593457502231122,-29.72096792840773
0.2453388029901735,3.274371771448905,0.03518493192367195,-11.61717979078527
1,0,1,0
0.8875225690194165,0.04256078403192021,0.4182772537349287,-19.17249987530185
3.714692908043241,11.79776715351119,0.000296509010340229,-43.0403170243419
2.865945850473115,6.067377040167344,0.006885065084859365,-37.69942515459125
9.569368650597024,32.41753449769315,6.217963977039886e-09,-55.39515584443273
1.028145822447522e-15,7.618175217361781,0.002889146371928886,-18.11394366744173
0.3205834930190804,1.883136560343019,0.08498904254867201,-22.97178908613576
0.2545042996148295,3.045526068037816,0.04047994080081591,-13.66357858392541
1.23426999083479,0.1603359942796487,0.3444236816746855,-23.24370722555232
7.324795098629524,29.16483569724366,3.323738906324536e-08,-52.77041871253564
0.8862008593322294,0.04388033073518471,0.4170382076678305,-26.0489829420442
3.17603086687411e-16,6.800642400234423,0.004556253979995317,-16.34942845042138
5.715832609943699,20.49547219487719,2.98862392456023e-06,-41.96162321157819
1,0,1,0
0.5993953631386101,0.6103631769714326,0.2173255502051666,-20.01095346668883
1.400410785660053,0.4827368525364335,0.2435926216571509,-25.33813953692332
1,0,1,0
9.555848176237971e-17,8.383262508718243,0.001893460236881861,-8.732681538285423
6.299474613552171,24.21818913323011,4.300804066770247e-07,-48.13195473814476
9.623548939124987,45.10444579095382,9.340028750415286e-12,-56.33478524510002
48.00015922830904,65.01740561518199,3.885780586188048e-16,-64.30565174604411
7.007288802419293,28.47789097810767,4.738728814901449e-08,-50.90764573241749
5.840566125974614e-16,7.618759231119849,0.002888210879643027,-9.113571615126927
5.839823441318351,18.33970070106905,9.240768535478949e-06,-54.5021980889144
0.2990889300375423,2.212078863846564,0.06846701746533418,-20.09670048429045
0.883660361794122,0.04604375822803775,0.415048137467019,-32.07850699914518
2.429740796855859,2.80169379993233,0.0470823910541745,-27.08072797367588
1.031540803423447,0.003652627416201426,0.4759038070885868,-37.26745266702751
0.5829542289756456,0.6845207746911584,0.2040171724235102,-16.41851150128675
0.310768891045374,2.052701817826552,0.07596817656838994,-15.7802112993735
3.905237500099394,10.74526395134589,0.0005227326411422206,-42.79350033537774
3.691120353502579,10.9013168223705,0.0004804796097387376,-39.2336229615955
2.161055434002487,3.553607066561739,0.02970807850452373,-42.11597130702909
38.50421085188195,70.70657923845559,0,-65.20184742332771
3.500208421432491,8.467284767728245,0.001807953888550429,-40.55407355129486
0.8367732804795006,0.09707282935002581,0.3776855196399844,-29.30540308694747
0.1860542321043218,5.281313757555594,0.01077773871626375,-11.17975906779496
0.5497382240271587,0.8575965680619575,0.1772060750554603,-19.76767865344501
4.011083786116969,9.424342975922087,0.001070619010409279,-48.29655591243567
3.17603086687411e-16,7.618712032433745,0.002888286472560175,-11.39412891752314
3.381626602041806,7.273127309007094,0.003499691471799071,-36.9107308359208
0.7325167550778811,0.3117945484654285,0.2882905304541393,-24.06792173818175
6.728744545674702e-16,5.360719189281504,0.01029763927455207,-14.86354802105526
2.615521884923844,5.052334689036201,0.01229638986330978,-41.14764933785151
16.5869474563281,55.75840100652373,4.096722960866828e-14,-56.27349093443997
10.35977394354043,40.48350207506112,9.914163934254816e-11,-60.86403935875977
3.17603086687411e-16,7.618782681881104,0.002888173321901888,-12.32461721585158
5.840566125974614e-16,8.322478078259046,0.00195787319587859,-8.862858180006839