dN/dS,LRT,p-value,Log(L)
9.555848176237971e-17,8.206073693483294,0.002087519793291526,-8.914948781350772
25.98894079380599,104.2692783209078,0,-118.556880610796
20.72631290586687,109.5808566187632,0,-108.6336552897699
3.540657397534035,13.66963145379069,0.0001089753560479245,-59.99259538373137
1.533904626778882,1.090708598117473,0.148157129913691,-41.39237693162138
9.682324783204268e-17,6.500426974352628,0.005392429493132123,-18.66121635217458
1,0,1,0
16.83870740686167,106.1092524267831,0,-107.2972708175157
75.15571188278038,155.6669982416495,0,-130.7161828855215
1,0,1,0
0.2325326339093462,3.643106313571671,0.02815089823375744,-20.46210062482458
9.922032857589668,67.78636555469444,1.110223024625157e-16,-94.78168398117512
14.46190999094733,93.71323283687042,0,-97.48441842537187
9.307060107789958,60.26678050158299,4.163336342344337e-15,-91.13189156956436
1.227505332798836,0.2310938110740324,0.3153569837779636,-36.37576865163694
8.795889307413031,63.69918569833712,7.216449660063518e-16,-93.67566440146656
17.9269522452487,107.0871291672491,0,-101.7327515912588
61.44779015331853,164.7806225271728,0,-125.2435409679363
1,0,1,0
5.338933359290612,31.17896602794451,1.17650950648418e-08,-71.14918244652998
0.5658844146175234,1.170827162064903,0.1396156731094516,-27.44887154796298
13.14784490582296,85.309594908647,0,-100.614121731427
3.770875566797143,16.87451611009939,1.996707718265878e-05,-64.91359275316739
3.499622781061457,14.40720945103359,7.361876867167938e-05,-65.36659160289013
0.2675430553148957,2.810896094444789,0.04681303227292444,-13.12185169146875
0.227538997229042,3.785808967303929,0.0258444593788783,-17.7124596409318
0.2249185918586963,3.867849886877941,0.02460976865409814,-16.0631820122694
4.741649036527471,26.18055386114813,1.554690188809715e-07,-77.08926460770967
12.11071484020576,84.77273225516865,0,-102.2640993986941
2.083030605428206,3.708867756434856,0.02706204705123311,-53.08326548476265
13.0819660148892,94.1348690148541,0,-107.8692135795821
0.7257014890578124,0.3386316561118434,0.2803100614052176,-31.96096459433572
4.614957997678348,27.07157499126151,9.802987310791877e-08,-79.34568358237748
3.17603086687411e-16,6.512922148253178,0.005354669024388525,-14.11037614556588
1.955389255111547,2.84213647880307,0.04591102575345624,-46.78091582654017
2.347227630852245,5.016085517572108,0.01255643974559606,-60.16868008957668
26.27002745636331,145.2824489672961,0,-115.559909732494
5.67447684187501,32.51291987624586,5.920138435033806e-09,-78.82225697653023
1,0,1,0
0.2475669365569392,3.245933650448862,0.03580044284819373,-23.07352349081436
10.1780449356719,65.76148246398546,2.775557561562891e-16,-93.19114164082849
2.821903870892275,8.347459886667934,0.001931134510311294,-50.07202146269005
0.7448545484726772,0.2842850498382887,0.2969531496067026,-21.93289032605837
4.69506229913566,24.69389391569979,3.359836619476475e-07,-69.29519904578899
2.407562502501505,5.706827954589997,0.008449524109479856,-46.53100941062918
1.785042540522585,2.184997310465675,0.06968065377314969,-44.61835778661943
0.2140011354318255,4.193184922629733,0.02029338965359273,-16.85163426913478
3.103407237196066,10.46374776441252,0.0006087002139631981,-69.16771071263575
1,0,1,0
3.17603086687411e-16,10.52971615201119,0.0005873512661273006,-12.6438989525316
0.9650529549303946,0.005029811766974035,0.471730248937095,-31.3713270986561
20.49331867200336,127.1494290785369,0,-106.0400073018684
54.70540616001369,161.6935954311609,0,-126.947301584476
0.4575457178813906,1.5933276236794,0.1034256764216839,-17.57045136317533
14.01455465154546,97.28304040848619,0,-102.0521977455064
2.450588395441539,4.94595668345724,0.01307588093146872,-53.9188188037058
4.779142245425883,26.1445321565368,1.583964499007884e-07,-71.29983324854049
1.216851562920504,0.1770616082971372,0.3369553521856441,-40.29997890208806
3.17603086687411e-16,9.679441306475756,0.000931706417011624,-12.75849520983335
3.988497681614341,18.36648740892724,9.111758154434213e-06,-64.89166171384446
5.01567437502657,26.60542537729472,1.247710104679278e-07,-70.1806547923334
3.17603086687411e-16,7.750545125538171,0.002684816532970091,-11.58409857417515
0.9915471228547043,0.0002848331180942409,0.4932673708772514,-31.51472360153618
7.977895218093987,53.81769680612277,1.099675905891218e-13,-92.45347020909321
1,0,1,0
14.44087859155721,106.1809430557946,0,-102.8990055934659
7.403063614338504,50.54959058330391,5.809797087863444e-13,-85.99406075609876
0.2518023674131012,3.148544962330533,0.03799734978648212,-16.36682153795024
5.878886889017726,36.27304016556931,8.57601101245109e-10,-85.19273811285062
3.17603086687411e-16,8.306113276533473,0.001975592769773549,-10.56961131777432
0.8641190469179436,0.08825103900882425,0.3832062420360087,-25.20198024959774
1,0,1,0
1.82927096386104,2.352157043198119,0.06255489230357392,-47.55296250387108
3.98279227118919,20.51230431285586,2.962457801736207e-06,-71.60094798540065
50.72852519983487,119.6686951475709,0,-126.1535374539563
4.587415997158804,23.81439327514698,5.304310560783065e-07,-73.13589273647824
0.7404581292380944,0.2953813290971397,0.2933962532616198,-30.5589254149979
3.153121000751522,11.64308726604456,0.0003222078095023728,-59.87921994535987
0.4071468980344864,2.201629527997362,0.06893246516011364,-21.855420457907
1.155933430827965,0.09831714083673404,0.3769292769311218,-29.81766557735101
1,0,1,0
0.2293462243475855,3.73313440166087,0.02667160240857919,-17.37467549807122
1,0,1,0
0.2406893886731701,3.42024024655975,0.03220082014214515,-17.3276327938977
0.9123142753218575,0.03418390657406434,0.4266580874064223,-29.12823402729203
3.17603086687411e-16,8.61855933382525,0.001663774618797964,-14.27737684272328
1.032405274221006,0.004936386703377593,0.4719935886905167,-36.53049851288547
2.06832909843803,3.66483206429092,0.02778612171211819,-52.37364403034572
9.555848176237971e-17,9.475079482974291,0.001041409307052377,-10.03166103714497
0.5802045243414634,1.058259228380464,0.1518062753246057,-30.94254938550003
8.482008511224235,47.35254170383379,2.965072631866406e-12,-81.91855554141003
7.852132919471752,40.50939430835439,9.783651666595006e-11,-86.63759013068857
7.087493029712941,34.8229418936634,1.805466220972107e-09,-70.84767590293514
8.876042386727033,52.65155900276642,1.991740106177531e-13,-86.95233296757861
23.81017809988012,129.9994375624628,0,-118.0367117924661
2.755640609462656,8.307976761113352,0.001973566810525462,-61.09327343348119
4.850074626658369,21.14276452330822,2.131538779870379e-06,-71.92177407411504
0.9836247480477859,0.001076483568681397,0.4869131279757474,-44.96279219044702
55.06517664307936,180.569084004441,0,-127.6087313477492
0.19125495907858,5.098921363500668,0.01197036321814005,-11.96796378896874