dN/dS,LRT,p-value,Log(L)
1.350618630805857,13.66986505896966,0.0001089617999667225,-1165.947710256923
0.1782610568022598,114.4362767009025,0,-548.2905897375347
1.267484780062722,7.289951029294571,0.003467068307875631,-1157.248910723016
0.5094210624719129,37.16852963094175,5.417414294939249e-10,-642.6758689398957
0.1080766884024789,179.6279403716184,0,-377.5380903754567
1.149532169252377,2.730028167143701,0.04923877406985544,-1138.678121070512
0.4640521147166,30.63953048762323,1.553492928740852e-08,-902.0442602604297
1.106886888179636,1.370338247165364,0.1208768883666042,-1040.17016901153
0.4844276731056508,45.79791795308734,6.555145315445543e-12,-728.329665316018
1.276334871228772,9.344994276479611,0.001117976757716466,-1289.958780313802
0.1397114848664978,149.7121410551117,0,-544.2778425458563
0.9955904112609639,0.00249848782641493,0.4800672202405347,-1151.897990442051
1.150740016449366,2.791371626190539,0.04738653763020489,-1172.959037950728
1.029917300218001,0.09528850074639195,0.3787793013042538,-1041.751608544506
1.034131398978685,0.1454228287707338,0.3514742073838067,-1090.149881638527
1.269170877228653,7.131722892119797,0.003786596217652038,-1171.688151718066
1.222343008163227,5.837150876930536,0.007845607584434866,-1230.18587195204
0.9527079605265603,0.2854692966031962,0.296569324442188,-989.8653933774992
0.4705447356010233,45.6844213829238,6.946165864718523e-12,-787.2469263320939
0.6299033630616648,18.89664543207118,6.899755768230431e-06,-855.4701503217049
0.9417964202363293,0.314528881023989,0.2874571445417,-951.533588130061
0.3978081278534748,65.93787563053752,2.220446049250313e-16,-626.4991270622272
0.4460991012432808,52.54232621014762,2.105537966201609e-13,-575.6881689636165
1.230470650229874,6.663109090804937,0.004921451927389131,-1214.257737972697
1.381896801950625,12.14973605618889,0.0002454740596516403,-1167.645537412167
0.1273510636580429,162.2731059546924,0,-430.4509682480585
0.9894598020268131,0.01450496575398574,0.4520686644756617,-1004.734168597664
0.948936091753327,0.3345752945615459,0.2814886640232543,-959.8368282830902
0.4984675727344556,23.93773050660729,4.975120362904484e-07,-690.4537054487455
0.6998455300244369,12.6867767955132,0.0001841252498962498,-849.5722541940452
0.7651972657155816,7.451241437213866,0.003169635564975404,-952.4837074091398
1.225279195561207,5.970147695999003,0.007275031049685854,-1211.826221537649
1.177756420322789,3.908857447552691,0.02401612082257587,-1182.900271439356
0.5123962894748219,26.52416191485986,1.301312324564208e-07,-856.4461864782888
0.1462662248418156,109.0209306256133,0,-322.04993024309
1.598602121074114,39.83703852065764,1.380300318487571e-10,-1370.455880453459
0.04653277401296036,207.714911977419,0,-417.3644198973091
0.9709214855694878,0.1142301441957443,0.3676893171835685,-1018.198771852969
1.634701636333672,41.33514467985606,6.412115283183084e-11,-1474.790287286838
0.09238517174301702,192.322681617673,0,-305.0589883997055
0.2497002670860002,106.0166534613209,0,-634.1528473486658
1.216668307777625,5.340776377427574,0.010416096556705,-1235.216636766599
1.298167784957806,9.746368103656096,0.0008983867870189788,-1255.631546607517
0.2031988845102909,124.6963949117678,0,-498.7617122135601
0.06991552315590935,211.6580682679519,0,-283.9591814634423
0.9013214455429653,1.372214513545714,0.1207158819252478,-1041.064491954557
0.7016648885654209,13.22481920850578,0.0001381331851786349,-861.48013614619
1.279421545267831,5.497525169320625,0.009521703250352676,-921.5295897795939
0.9479558106014951,0.3520537414406135,0.2764764264947986,-1031.946144836814
0.3210464523723788,83.53509230793225,0,-563.948672054054
0.4282983146775882,55.99641166493279,3.630429290524262e-14,-632.0401825936627
0.2710346020322068,93.34231002351976,0,-627.4782899351975
0.1205736245308954,185.2055399268074,0,-428.0477068737029
1.208212892533096,5.215578259761969,0.01119270060876937,-1182.79325382432
0.8760769285952607,2.138715649561163,0.07181104459348026,-935.602644810903
0.1237149681018318,148.7192389347213,0,-483.7145258280681
1.33542293462405,9.52311718682131,0.001014498228231853,-1182.289047108384
0.6204166971047228,20.27010004108479,3.362163603248813e-06,-922.895336479914
1.049692439495568,0.2243582396854436,0.3178695179903841,-1041.550336365307
1.001446722758865,0.0002644018195496756,0.4935133099338658,-1118.447296743765
1.718216732747829,53.26314106596465,1.458833054357456e-13,-1426.097311859643
1.096265901434874,1.335769636984423,0.1238906906656617,-1136.089715791537
0.9458571099111784,0.3809483649811227,0.2685480620287553,-1059.847952155745
0.5636678815304913,29.85310070855894,2.330254683657884e-08,-748.2431166736636
0.7284545415375869,7.550248215475676,0.003000090446035997,-852.6844590433636
0.570952995751974,27.24918993796859,8.942502283115772e-08,-732.3545460929757
1.148202592259688,2.685382309468878,0.05063645871404959,-1136.169932546738
0.05999372350377246,204.4489540339846,0,-517.9830431616355
0.05501736190283596,198.5627121762477,0,-487.3573459229565
0.7187013929758831,10.53874025837899,0.000584490352326883,-864.4488249919453
1.425236951472916,19.80278989769977,4.292863330923602e-06,-1363.630871062697
0.5531094998306332,31.6480051456515,9.240216647388166e-09,-758.9840476859156
0.3924319794900787,65.65314629478826,2.775557561562891e-16,-618.4132703277903
0.1369236850694301,222.8722715853924,0,-212.2810473561346
1.51466635707554,26.99547965258716,1.019659097711845e-07,-1196.905394243986
0.5117095601127684,35.45530697905724,1.304851893202397e-09,-829.2342615529733
0.7944631006398452,4.370909955474872,0.01827873247691736,-746.0842554423346
1.142490881062655,2.510053595218778,0.05656104225575709,-1221.58271631269
1.251541086803097,6.960047360007593,0.004167491331405149,-1152.844802463717
0.9362297956348036,0.5224700166459115,0.2348949704595889,-1025.05850320568
0.07413796024142051,176.7584640831967,0,-470.884746948693
1.116669108580886,1.26714439293346,0.1301515371154285,-921.9170899302455
1.248302993420016,6.859704810663061,0.004408055609247785,-1229.248518160238
1.375781828607844,13.25829344330509,0.0001356882929982595,-926.0706417697246
0.8243071167237929,4.499961200084044,0.01694781130595863,-1007.793978510965
1.438122942003627,21.31791512893551,1.945391671920316e-06,-1307.071419305512
1.423877172752048,19.02290562274675,6.457933810766203e-06,-1311.903047434637
0.3357850898363711,73.87525728827723,0,-594.5227877797803
0.7347486502616517,10.35113700018155,0.0006469748041680878,-907.0440207437563
0.6991032891219801,12.47820718796288,0.0002058635772897999,-776.3744705227072
1.439214953959592,20.69799702875343,2.688611017320763e-06,-1209.477519911555
0.6403863101190993,17.66138732834816,1.319651816505951e-05,-832.9764054275921
1.196335529552141,4.103155945350409,0.02140162261885997,-1200.510752021921
0.1702948195325193,135.5248537018326,0,-522.1664140885511
1.78262019381952,59.87109455647078,5.051514762044462e-15,-1440.650084408038
0.4154266947912497,55.53881365712436,4.579669976578771e-14,-766.1586575198301
0.3608231897622067,68.58323269516541,5.551115123125783e-17,-747.7153375161381
1.167115855824572,3.296158662147718,0.03472104953923372,-1063.063198502102
0.7164410848778864,7.775922264709834,0.002647358891121776,-937.0814385840715
0.6822416565015232,13.53248879624539,0.0001172344526156888,-846.2923094071058