dN/dS,LRT,p-value,Log(L)
0.7865864407123666,3.890801406316086,0.02427562546045903,-612.4199392975335
0.754153872390918,4.943909230911231,0.01309137748752792,-559.2489594094374
0.8429487090940152,1.953422533959611,0.08110925853717021,-497.7418529411469
1.174044539151762,2.21523386850572,0.06832717608128047,-739.8110306221289
0.2459542630231913,65.85764863057,2.220446049250313e-16,-391.2451816467719
0.9378139999571983,0.2797805981820147,0.2984225282641966,-548.3262464764271
0.5856794296231894,16.00397312215114,3.160484644659789e-05,-537.4465557671605
1.411323021017705,11.63876729448634,0.0003229569651007069,-800.9092550914646
0.7177626549093381,6.813272032797613,0.004524140802713517,-646.2324806659759
1.348006620127911,8.6068322641554,0.001674521382089067,-735.0152364319065
1.101667986755374,0.7895497342194631,0.1871181553771384,-599.7934886480934
0.7732036746924985,4.20575585266829,0.02014350816879307,-692.414147849726
0.9424107962089954,0.2937561102658037,0.293911759973138,-689.2999434585098
1.526920673846714,19.98155253549317,3.90964540170069e-06,-874.9623012241379
0.06389425049408393,118.1001952505283,0,-259.6387698471266
1.498845960970847,16.12715404276696,2.961435318826755e-05,-842.981148157073
0.369784106807216,45.0370088851339,9.667266986923551e-12,-363.258008240418
0.352859936189046,42.47901966984625,3.572225848458288e-11,-508.3655794485375
0.1293612501797034,92.93461181575708,0,-276.8423588004914
0.3063253687991757,62.11619063735179,1.609823385706477e-15,-328.4461950511968
2.015391145643683,59.89454712875863,4.996003610813204e-15,-986.7852901092491
0.04612433005130605,139.8760765389856,0,-158.2063552156161
0.8807385247684927,1.094030043902876,0.1477900016896189,-560.8623791975637
0.2296095329892637,71.05215529533189,0,-236.8944773537784
0.6318567721341711,11.49594875576804,0.0003487402340553447,-605.3597649927722
0.8377160573451163,2.348282733092674,0.06271055215054766,-679.5567536814126
0.478724436590502,25.78538616628316,1.907833148129257e-07,-386.1362494708081
0.14381498117679,79.45823286337395,0,-305.095894810925
0.06080219974632668,125.5581327340973,0,-157.5918983881219
0.3217064220757262,38.71319242014118,2.454400571672011e-10,-236.5554722861386
1.751454306113714,33.56787906963177,3.440993323611252e-09,-933.2044560692265
0.241059319617098,68.50037383698657,5.551115123125783e-17,-257.6917052591082
0.5652285243801848,15.68028304613517,3.750098474586405e-05,-461.8388610831498
0.3408438719163494,47.50960037874336,2.736755266852242e-12,-340.0157002156031
1.168171233815853,1.916901157803977,0.08309933886278892,-720.3712544446483
0.7234471734104287,5.769903459072339,0.008151465053346629,-491.7737104881598
1.970396041497393,53.42162024363211,1.34559030584569e-13,-1018.960607882772
0.9779654016623468,0.03648754393907438,0.4242560862525575,-700.8634728355631
0.5232976312179757,15.12012494684177,5.044104513218794e-05,-390.2084710205377
0.5295712138059502,20.48731387517466,3.00138966236041e-06,-444.8522929126831
0.1116484060975228,103.2475061210025,0,-409.7755179645736
0.8963469773503646,0.934145197089947,0.1668940548424832,-534.2246356009764
0.2926665318256301,80.29797703249903,0,-238.3839971705237
0.323431160540351,28.64370917729093,4.349807547487927e-08,-304.8400426607683
0.8095876044521269,3.218526471135419,0.0364045721708276,-572.2685638756966
0.2858483180735261,54.30958413075257,8.565370634983083e-14,-332.9775089104227
0.6351601170218492,11.65159212159097,0.0003207380497434187,-518.0144034006114
0.3393541122605294,39.35208880868754,1.769370761017797e-10,-564.0308198437281
0.787884573293907,2.993790682680128,0.04179214823219701,-682.3657437536943
0.6089854673910265,13.55274230671841,0.00011597613678066,-428.7827178728688
1.670082920499459,24.8267692524546,3.136018499327875e-07,-853.066815464023
1.247292675270064,4.059477541354681,0.02196204364994975,-768.9838563990297
1.613640139859197,23.29818123303562,6.936556491976553e-07,-830.6511546666349
1.609952588746596,25.39369962734327,2.33721139053511e-07,-887.2166589021397
0.4694684159973491,22.26346815643569,1.18842884611059e-06,-278.0930130218801
0.742441295721825,5.635821681116795,0.008798547853643091,-456.4487314240731
0.1812791829252105,77.95486491893951,0,-314.3839739679736
1.5234770476643,18.27875696806768,9.541164683268821e-06,-761.4987371387776
0.8974252479515756,0.894434084999375,0.1721392674454582,-615.1464285436927
0.8023356197842598,3.147434664017055,0.03802321557958738,-534.5973441123493
0.490394055627306,24.51098986409909,3.694359859696128e-07,-401.1685138321299
0.15040630879427,96.86395426107316,0,-179.4420074552428
1.094090171235102,0.7078455705648139,0.2000799796980082,-677.6447697675511
0.4115663914009418,33.20209828476482,4.153042743038071e-09,-310.5074524904742
0.7682241141330372,4.740743839358856,0.0147281662882261,-529.8565183705773
1.867924702981083,28.58554908922429,4.482436921637856e-08,-749.5046097275256
0.6040077536123521,13.74325695389552,0.0001047858977013538,-540.5692258899467
0.2225468474559298,71.05377661883102,0,-233.6658136881305
1.472827321829019,15.0722722831415,5.173603501962276e-05,-817.1174993700332
0.9972540258470044,0.0006064292665541871,0.4901767262042415,-653.0915540906567
1.27219802335032,4.224099751630547,0.01992687786516545,-622.5047772721728
0.3863108922538595,37.86233000875825,3.79585252119341e-10,-338.30771005792
1.644506358472699,26.54997960510696,1.284037146609407e-07,-907.0997372254179
1.013665874359092,0.01267440592505409,0.4551815077059275,-595.033199008769
0.9628104804456034,0.1248501897675851,0.3619162321879619,-641.1798309405062
1.486395967420006,15.95945777051588,3.235682067792567e-05,-787.7482479764327
1.280879184091742,4.313373600352406,0.01890695075273657,-753.9243520241938
0.294845001525843,55.58027622050145,4.485301019485632e-14,-439.4052708976477
1.058330030806512,0.2389318485959393,0.3124893282865704,-823.9201042743954
2.144115434629709,75.93868426650761,0,-1066.87194225505
2.471405124701087,112.8282011457577,0,-1206.865294567188
1.48438606277645,13.65155649884991,0.000110029412638768,-605.6009403519478
1.380446099106203,10.94921282628752,0.0004682169468417374,-829.5527196924303
1.378579920132289,8.33852171627268,0.001940658323043798,-645.7490530915203
0.1145579755751628,110.5326828390402,0,-171.0247445564569
0.07292296995111747,120.1178315397516,0,-157.7188658311941
0.632703116136904,15.76569532326732,3.584534176293008e-05,-443.4001880036536
1.128337679986909,0.9741706259310376,0.1618211174311088,-717.819507361085
0.8439069993508664,1.685605199782685,0.09709065760976221,-640.1695067817636
0.500939373465796,24.70771487437787,3.335828834272192e-07,-516.415220005284
0.5123339918043532,22.96220634789688,8.260888930133881e-07,-398.7292122333769
1.721531289007364,31.22669863913234,1.147933581524541e-08,-889.9759193081271
1.326843773151626,7.25049460564378,0.003544074293091393,-758.2035268797936
0.3881926997145506,37.44446472932009,4.702662148581283e-10,-443.1393900894612
0.4242791354376119,35.62208934821876,1.197778265460414e-09,-412.1766933940334
1.366904945685173,10.22116962693212,0.0006941888850596212,-779.0162017704616
0.4233986735964764,23.87005929119005,5.153115215650317e-07,-379.9589090264035
0.7445397172026443,5.666400105942785,0.008646454144622784,-519.1360704924859
0.7278881957476643,6.678665970537054,0.004878681121827655,-488.3679813896547
0.3190364263082203,35.38113771664814,1.35549815816205e-09,-463.8922354378395