dN/dS,LRT,p-value,Log(L)
1.028145822447522e-15,2.958590803377707,0.04271118000421209,-11.71054773597817
0.4375910532116258,0.9150139919051057,0.1693937749753206,-11.33638895404709
1.494524466350817,0.2824908530458075,0.2975366258858243,-18.65206435238375
0.5900121513497651,0.3335925514224236,0.2817756409947606,-13.07327644870131
9.682324783204268e-17,2.568893983380672,0.05449195269476764,-9.374520221472554
2.449231293967717e-15,3.063379139798705,0.04003749179901378,-24.39928516312089
6.728744545674702e-16,2.796779746845711,0.04722691965009856,-9.662549628993849
1.949634357117063,0.719129324785591,0.1982148275104268,-25.64895282046772
1,0,1,0
1.315815318466638,0.1372180013987503,0.3555312549983507,-19.84781811868581
0.6765830948462478,0.1740927244491175,0.3382498983333111,-28.53683881621404
1,0,1,0
1.293354148686569,0.1211606902340421,0.3638895105453649,-30.25422083965893
9.682324783204268e-17,3.112193397909088,0.03885412322356097,-12.20042892496462
1.028145822447522e-15,3.139600080770457,0.03820627094031648,-10.0857651364233
1.840345614752885,0.9158951760691849,0.1692775391673816,-32.37119039138463
1,0,1,0
0.6756953312656542,0.1753542604841876,0.3376982476603351,-11.28661967536874
1.278800663172946,0.1111451176918692,0.3694220915589329,-25.13286634753867
0.5538512291119553,0.4282958901920253,0.2564131579087867,-13.138331762612
1,0,1,0
2.804502661847769e-15,3.063379142083413,0.04003749174272714,-22.87817015953118
2.441688652723989,2.406722417882264,0.06040754142960919,-30.42750696804784
2.577531992876108,2.663773402315343,0.0513284691232605,-32.58847290267666
1.334089821022923,0.1506933257927443,0.3489368349930662,-18.75236443855034
0.6770231177864179,0.1734777241410832,0.3385196798478453,-13.72236002217339
0.6396380579212915,0.2322967470992978,0.3149130149818991,-16.84505526652542
0.8492035519417845,0.02815701295810058,0.4333701085268244,-12.24748047999388
4.567448968948365,10.25251637299462,0.0006824913934590504,-51.21077299702527
2.672133484570369,2.842489190780981,0.04590095031507019,-29.79842254358461
0.5682699914928683,0.3880774866983998,0.2666558456458987,-19.71665287117841
1.287960005805994,0.1174541008680876,0.365906147845659,-17.75279483092994
0.6584971796575717,0.2009859146159236,0.3269631091791307,-11.65119052832823
2.648071999922497,2.796941689841233,0.0472221490146521,-27.66074543202596
0.7154826199723061,0.1252875727580616,0.3616844878429443,-16.73350598428465
1.315145268615962,0.1367327844998343,0.3557754580398866,-20.71683917445926
0.6379259625247488,0.2353147913395048,0.3138053448696291,-30.42419812002543
0.6678758515712112,0.1866456560897802,0.3328615983137138,-19.97210677203882
1.116878566113464,0.02348214201786192,0.4391049648262183,-19.2358648003715
1,0,1,0
1.303128673496701,0.1280672431087737,0.3602222323789869,-19.51566986799392
2.525527429717412,3.201645068264583,0.03678211957267929,-41.88794282576797
3.916810841952132,6.162206688686844,0.006525414773846272,-30.7537899237052
0.6198140142189049,0.2693598656781617,0.3018807516710083,-20.96422505050119
0.6379727020357565,0.2352362833781569,0.3138340471201712,-17.52102328820144
1.305452606775618,0.1297547273217177,0.3593432408322422,-24.61488735355162
0.7841951711709125,0.06404953903761523,0.4001031566206908,-12.35941903827808
2.287852447174094e-16,3.313671956555098,0.03435290605486141,-10.59541421687309
1.312895925790878,0.1350742240115537,0.3566139274126811,-24.71946894307775
0.86780655184714,0.04203790441048483,0.4187737682128579,-18.45605724053567
1.028145822447522e-15,2.068140999491185,0.07520237829357712,-24.20699472004659
1,0,1,0
1,0,1,0
1.122815875521884,0.02573531698828901,0.4362742088746557,-24.51186424889266
0.6596348844947255,0.1992052153216015,0.3276815697814121,-11.52863480685692
0.6371735665519204,0.2366559716156864,0.313315924975558,-12.23152891347918
2.62667388473403,2.757090547745463,0.04841208995700425,-41.21412765660408
0.6389861395435616,0.2335012054607937,0.3144699013334817,-11.25151218197871
1.028145822447522e-15,3.133932947808201,0.03833927425480738,-12.22777586033689
0.5680979133181563,0.3886017653290743,0.2665176451738019,-11.24433908439132
0.6750159110182551,0.1763148344659307,0.3372797652051154,-11.67636639086255
1.304144276987474,0.1288298823987049,0.3598241775543166,-22.23081435383234
1.718462494717727,0.4917249362541796,0.2415794286659156,-17.30762398199947
1.219127515920911,0.07329363078202533,0.3933001335767737,-18.54367608337881
1.999937760673863,1.153445570198592,0.1414145155355241,-22.41514337472506
1.724025209804476,0.7448640718536552,0.1940535918728213,-32.99103084281945
2.890346500300233,4.049720156567645,0.02208933395410473,-58.16522003148724
1,0,1,0
1.767024230178404,0.8075041260967879,0.1844295934812246,-36.18647155640578
1.276134739220072,0.1093356298608583,0.3704508915350255,-18.33289960388586
0.9522726318857685,0.002421397258814295,0.4803768894417164,-22.71475045838854
2.235913536730801,2.00688944620449,0.07829304259414938,-30.91364278290531
0.9497146718409872,0.002696675755032629,0.4792924235092806,-21.41472067356097
1.289204716142048,0.1183102339505453,0.3654372261991379,-27.2407396529863
9.682324783204268e-17,3.302540399330823,0.03458641374994359,-10.25980542861815
1.111089071619238,0.02136862330057454,0.4418896051070603,-16.96327228297693
1,0,1,0
1.838333989308976,1.217130729973107,0.1349622416605946,-28.55514466101372
1.311002020332945,0.133708068767632,0.3573089735982123,-46.60243320208173
5.840566125974614e-16,3.042118153417551,0.04056499615802872,-12.37398034565346
1.159223665846659,0.02072535637242368,0.4427648283873045,-13.32979859595555
2.231499767037994,1.996970678483656,0.07880696904753903,-28.8671276017222
1,0,1,0
9.682324783204268e-17,3.313675196431738,0.03435283833772129,-10.6070553356343
1,0,1,0
2.287852447174094e-16,3.311736973184878,0.03439337495093336,-10.86863225487967
1.530352400842499,0.3141911012897296,0.2875598367848864,-21.26148482530202
1.124501972741051,0.01320215528876645,0.4542619419843354,-22.64264616644529
1.285841305272104,0.1159953966364355,0.3667095290669429,-16.31131727565968
0.5691001375574154,0.3859268386649646,0.2672241183705343,-12.39150755505375
1.825800223821894,0.8947647313200804,0.1720946844061823,-21.95960239604802
1,0,1,0
2.605043589214371,2.715986689963039,0.04967376160617737,-25.09438424159683
1,0,1,0
2.831429221915741,2.350459664223962,0.06262303573583888,-29.15036959480373
0.567365650622157,0.3905577747306737,0.266003178691364,-12.34884074814452
1.968507228271064,1.106516322661314,0.1464202391602825,-30.5254945626554
1,0,1,0
1,0,1,0
0.4772066541556817,0.7093335226949087,0.19983257753511,-11.56867026512446