dN/dS,LRT,p-value,Log(L)
1.297168708537838,1.226165238536282,0.1340770531069328,-171.8033989897696
0.3029528689292044,10.97293547301425,0.0004622609738696992,-80.07620661727532
0.6799151104278505,2.018004235760458,0.07772166480404419,-117.5422410897966
0.3829181601239165,11.62715124126333,0.0003249801206725578,-70.88765408431016
1.114935959424546,0.1915005521032072,0.330835322289762,-126.0842258201231
0.1754006685275941,17.63138932943876,1.340630801499598e-05,-51.62391652551904
0.1640116110150123,19.56327316862709,4.866110355272735e-06,-52.5143483865586
0.7810088574219269,0.8545505509334248,0.1776340941754586,-135.9001931854932
0.358037401701779,9.110110955307618,0.001271002265228083,-102.1338632625375
0.9107114009569107,0.1517109494250803,0.348452823311886,-139.0216239798313
0.05038297586566993,31.53720055718098,9.782789134327174e-09,-35.29938659323285
0.2966194393827868,11.46129228295058,0.0003553043358774377,-95.81278453737578
0.1226306630671289,20.07397588342391,3.72518014452039e-06,-81.18784293356759
0.6941658230953563,2.237913457562286,0.06733129331994903,-116.0583625778249
0.3123818046205087,10.28601090354752,0.0006702128102950011,-87.02419241189273
1.306578544204075,1.422514603211425,0.1164949774297068,-152.3574418667008
0.860675123678143,0.3276355251001064,0.2835273523924604,-101.8898138245065
1.157852405985086,0.363521462855374,0.273278490006635,-184.2170339602405
0.8250819423523554,0.5459639392264535,0.2299857660276963,-127.584588247476
0.8422127232179935,0.3709010708972187,0.2712567582972704,-133.1874669440362
0.1946785975862433,14.87992087051367,5.728804244520269e-05,-80.23772197118898
0.06063594922670643,25.20572442357872,2.576451176294903e-07,-43.66061449544683
0.3107734751737188,10.41334423229904,0.0006255398843000859,-70.71250263978081
0.3434356672893748,10.2082942740337,0.0006990521259554461,-75.65474581727536
1.51232629747636,3.694902772453531,0.02728948158846672,-175.6412480126479
0.7519685478655477,0.8842844240337229,0.173515444665574,-112.2090893276724
1.183833855785604,0.532029803586056,0.2328773679638642,-164.3335453465904
1.235771599291381,0.9195374423534872,0.1687982270825522,-189.4376673501365
0.4589586969216036,6.341931303236692,0.005895821193472039,-99.31661447070982
0.8416288432200838,0.4049899803966639,0.262261704977423,-102.3646246960147
1.427957132393011,2.340147147597065,0.06303882206395661,-163.6205982693145
1.385980407043225,1.982066766517278,0.07958642325696103,-206.9525281908255
0.3050215785667236,10.80947384036187,0.0005049099907078469,-78.70532940959725
0.8347759160824968,0.3780745004545452,0.2693177684011541,-113.3050474448132
0.540761548733271,4.644660444536015,0.01557514958439249,-102.6508981801816
0.2236314448601523,15.66311249170619,3.784299722575657e-05,-65.78866762434365
1.143052132709772,0.3377727110816977,0.280558842673346,-157.7458307098242
1.0717157314885,0.09261648959909508,0.3804384081274245,-164.2349082872769
1.436347252582022,3.417969835234487,0.0322451380458732,-184.6543525489555
0.4858697079627818,4.667909177584207,0.01536565923243671,-63.66225987661135
1.162477650037924,0.4044784094811007,0.2623927178838914,-152.0417279002326
0.8644486184315635,0.3125986293878782,0.2880449616274057,-130.3859328198734
0.6087758590477014,3.181502261026992,0.03723811421615436,-128.6341681832097
0.8536813642053378,0.4178300032604909,0.259010910617543,-118.515174898478
1.269680755714829,0.9871492715078034,0.1602200585100877,-140.7891359388545
0.4729335130581919,5.796061927607894,0.008031055167229739,-112.9012988173633
0.5760702981868505,3.283446301826672,0.0349909174197357,-109.161448155185
1.275612034588284,1.133506838261269,0.1435142791555111,-143.7370179428842
0.9252577519554915,0.09179212324306718,0.3809555431730773,-142.3079464706449
0.9213795650238755,0.1020715275233215,0.3746788704949833,-148.5494087209588
0.9712458656097299,0.01443890425520067,0.4521774128906564,-124.5743456775483
0.4498729223908605,5.879750946381961,0.007657994009886426,-117.4830738942558
0.9251823008605602,0.09211484245071233,0.3807527965983455,-123.9018708323031
0.4734032285152801,6.500966180575233,0.005390794384190489,-100.8197433429706
0.672472251356842,1.784908659650739,0.09077386238791796,-111.5916415359335
0.1731639591503853,17.99088054749618,1.109828902340348e-05,-67.61373448279407
0.5334011277780321,4.389695406721614,0.01807838606247042,-78.03644419140592
0.8091088790763232,0.6193048913953589,0.215652855006247,-138.5802499876786
1.082230463064515,0.1096922169441541,0.3702474074173633,-154.1597798257517
1.19080290002346,0.5959969205856623,0.2200547356371837,-162.6918175252516
0.1635637981477147,13.11597269314706,0.0001463943769324239,-127.2274100826484
1.30268628705973,1.519971476079263,0.1088119049403861,-168.9835658312041
0.8512342627094732,0.4333732965890817,0.2551691741449502,-142.4603805065687
0.3304281226432005,10.92876257125749,0.0004734135735277034,-94.07791058340777
0.3349557780226849,10.60374723999709,0.0005642934919972697,-104.608092419672
2.006339260804507,12.64095909415272,0.0001886931581337459,-200.3504024322232
1.359240571401512,1.680858954262476,0.0974051784306183,-158.4607339006535
0.801182247417915,0.6811721651115192,0.2045916926855674,-126.7157934769699
0.7300980563953723,1.416482919865302,0.1169915828972392,-140.2559345410378
0.8476218082917387,0.4287755198345735,0.2562951972317061,-136.6559788017532
0.2106547941247452,13.02445282646497,0.0001537249484538372,-66.86183197037042
0.7179788346669784,0.974731482374807,0.1617514944812242,-114.3320114717617
0.277975475325407,13.06340791128684,0.000150560525424781,-60.57189915096434
0.3305690709340307,10.92764307115227,0.000473699728140542,-62.05203444656092
1.34366433327496,1.646473960407491,0.0997197621100499,-187.6129599129598
0.3666458268084508,8.610035093237741,0.001671579303961557,-86.99626286405554
0.4426366879763611,6.156783259375601,0.006545453234170218,-117.8883059986217
0.1448928404139632,15.75804957313944,3.59905025964502e-05,-54.82760101640108
0.7297982567263546,1.31203374859723,0.1260133820363759,-116.5291158543266
0.8051233502018825,0.6498261666391159,0.2100874182042107,-133.065934452567
0.9999200893492102,1.072860413842136e-07,0.4998693282616721,-136.2144902211252
0.953398523130172,0.03660224648905341,0.4241385682783534,-118.8515504585001
0.9179196922270868,0.1194642135320123,0.3648081605723064,-130.3432863308078
1.198722439304359,0.6725789244293878,0.2060769595277527,-142.5746974039175
0.3213883914496127,11.61892777438791,0.0003264201275466894,-81.6948365264623
0.9933248235343859,0.0007106970030008597,0.4893658968585132,-136.690447121453
0.4893157355947805,5.21611704700473,0.01118923301670749,-103.3126136662984
0.4138087375166641,7.410586301824594,0.003242059450267731,-101.4423059810807
0.4270154085186246,6.806694551786222,0.004540836241320401,-95.45273825942778
0.1793267309588713,11.36496733398542,0.0003742119672678346,-85.01739891755186
0.6375976630150513,2.811601031819009,0.04679246739579751,-120.1287309342791
0.5051631698925642,5.2882200607838,0.01073507678011165,-85.97093830487088
1.472950077593866,3.395488754936594,0.03268749288945344,-172.789962014574
1.049056644349742,0.03343749176696065,0.4274542432860532,-131.2999021718679
0.2880696374207355,9.738164787853833,0.0009024050059616151,-109.698383450428
0.1514572148511777,14.77269885929003,6.063935501815498e-05,-61.43048802745954
0.2920963600880732,11.83088485669961,0.0002912815178576778,-80.37868959760087
1.004145561004421,0.0002680932552152626,0.4934681890738565,-162.1863388648681
0.05819285585722733,26.50755805457194,1.312545221954231e-07,-39.71691426990979
0.8081021674450124,0.7241824436568152,0.1973877046517784,-112.6164897639242