dN/dS,LRT,p-value,Log(L)
0.7607151932275347,0.4917329304594205,0.2415776503254883,-86.19947825440879
0.6536990604052942,0.8357636516421962,0.1803055931016015,-68.74573608419237
0.7919924631028068,0.4697519436410005,0.2465506541196337,-70.67123803145422
1.044479965645246,0.01674585980251209,0.448518281214725,-85.61749727074044
1.145611108428148,0.2113772028318124,0.3228450507591117,-94.89436587798875
1.016126458360298,0.002032292210202513,0.4820213921467287,-102.4635349004615
0.1268416518298274,9.625533089529,0.0009594537183845731,-70.71002162513872
0.5352508139294029,2.426697102247132,0.05964199750044996,-60.03370923384347
0.1420043916081437,8.170006714587245,0.00212943745988825,-36.45436860846877
1.138323643972863,0.1283307578480901,0.3600845416606347,-69.31872886101425
0.3573764966694727,4.606839971584478,0.01592233159827011,-60.54419809207155
1.205740541546039,0.4592040092885838,0.2489981078158642,-115.5756992891548
2.029879823902569,6.402275963056752,0.005698708026101729,-149.4552439489314
0.9131960864001201,0.05092535108799723,0.4107304231915881,-50.33713725850304
0.7026464540331298,0.8411441469149565,0.1795348746059998,-61.552041761855
0.2082398666816437,8.91852608588654,0.00141146122096325,-29.77690618375516
0.9412156692883172,0.02241956508515841,0.4404881708302889,-70.95293383529902
0.9346164739204051,0.02333275163792337,0.4392974704308755,-101.8127719765181
0.8203604639779685,0.2926493768513012,0.2942638641261269,-82.26002972687456
0.2156514472577265,8.395756424100597,0.001880489865327628,-34.97625154906831
9.555848176237971e-17,19.19792879303933,5.892058984546811e-06,-24.01178118657377
1.281041098375431,0.5078084409565804,0.2380445536627535,-98.6185177338884
0.8344362383387059,0.2432217969187889,0.3109443929523888,-75.21013359677019
1.08406963950754,0.06378347590305111,0.4003064762024205,-87.1926873794157
0.2502498376715573,6.430752325033666,0.005608053032150395,-76.67061677799113
0.8534344025556072,0.1586576685672156,0.3451976936264009,-56.45798775980336
2.115025384405813,7.517066778225285,0.003055855991472956,-147.7744751021367
0.6263677635764785,1.283884881162692,0.1285889775712361,-59.26420416558954
0.7615503242730564,0.4876084548857165,0.2424980309434756,-60.08140992008406
1.489382277613656,1.669582269303248,0.09815724772391077,-100.4143783416041
0.915552580492716,0.07202896303809325,0.3942026000088795,-97.88248866633148
2.212429767221462,10.30009861405489,0.0006651155008071119,-175.2412165744764
0.5349322151315195,2.431863783480452,0.05944573304801326,-56.14400476808301
0.3224752758620159,5.804126934130267,0.007994302134618048,-70.82203251610566
0.2369240854002961,7.1109103082877,0.003830809656753698,-56.72664429326041
0.4319824651477204,3.795082769913734,0.02570166583183053,-60.83948832759698
1.000512209636873,2.090677099886307e-06,0.499423162620042,-69.94497671434537
4.676412907705265e-16,18.70443640679206,7.631348530157123e-06,-22.3955898438877
0.2171060088221194,8.30157376532145,0.001980536935215937,-35.15850899698616
0.3558210328817834,4.653925305867716,0.01549131078887367,-71.38296096012165
1.294129919695797,0.6703294288862196,0.2064683883840593,-95.71670255791346
0.647938635194873,1.309246798426017,0.1262655359716496,-71.66382991155349
0.1347982561688592,8.817121161133137,0.001492085518722597,-18.45346391690797
0.4254217642596573,2.969366634821654,0.0424275353668524,-76.74523779970841
0.4926995646957257,3.210426394601853,0.03658520635776402,-62.0006425136958
1.07085083246859,0.03201318221468341,0.4289993641603059,-53.03532266558506
0.8746907388186125,0.1308629183080541,0.3587695041154145,-108.9727032595043
1.004496935364953,0.000159218547423734,0.4949662067968573,-90.46894905546851
0.9344426845692383,0.03751307738482978,0.4232120793094553,-83.50881902891304
1.250408790502625,0.4157080552417654,0.2595432239170064,-110.6167506032671
0.1184216792532539,10.60523047935962,0.0005638409999435545,-37.94041611640077
0.9466663260666294,0.0244162815090192,0.4379151848111688,-72.74412386671035
0.153247138618196,7.292442641409306,0.003462263258508957,-14.47853765552353
1.172595158906959,0.2397856288601758,0.3121804938988783,-119.4581731713928
1.265924619084003,0.5135425261704825,0.2368046658862092,-94.93998418672761
0.1172140210820749,10.75871613893395,0.000518946780903029,-23.37395114062584
1.217611465481648,0.3623227018798616,0.2736095438476329,-91.22678518822785
1.270055803184604,0.52728037395039,0.2338762481323273,-83.94533824693214
0.1236966209635078,9.972242059735748,0.0007945892865272586,-27.85878932841598
0.98958019100186,0.001097863698362289,0.4867838542916744,-99.60478133982998
0.2475380878054703,6.56219899304898,0.005208378237666955,-45.43016092643309
1.476973267400645,2.005395042002618,0.07837022868796956,-113.6008509348071
0.2353715510895369,7.193004468113671,0.003659416743231447,-60.17536841306166
0.6188929089684627,1.356537061502365,0.1220692709338153,-65.58322788495978
9.682324783204268e-17,16.02389108865263,3.127409866293673e-05,-40.66870176857314
0.1250282500236143,9.821475062553944,0.0008624297643179402,-49.01135224378753
0.5866876876226793,1.707712632998408,0.09564120694088513,-95.53011506616178
0.9921023441796623,0.0005050142503364441,0.4910355153191059,-92.55160348027606
0.3790532876541768,4.00209387623083,0.02272188783049978,-56.59113529209061
1.247180990824413,0.4068339429666992,0.2617904304623278,-101.046563911722
0.1068112895066693,12.22858870986055,0.0002353139175410024,-46.46707927138072
0.74260233930415,0.5868282985538258,0.2218241117575478,-65.57194330434491
0.4990243462550704,2.465092191178314,0.05820043635803407,-64.49795454491523
0.6858007825822909,1.130923351085642,0.1437892360918509,-77.72925764527909
1.218160267518321,0.3276852572678592,0.2835126409608292,-93.11919487912964
1.365156842191733,0.9603061556993566,0.1635548770965724,-96.72413651133824
0.1266705703377147,9.644104742574669,0.0009498012932165345,-42.85770199590378
1.194042182834577,0.3253537378906231,0.284203934660392,-87.31915031322286
0.1970724172017601,9.782713319575876,0.0008808008413765944,-43.60331177990376
0.8811977115226804,0.1498817636669969,0.3493241874002137,-84.37623617544455
0.1238024779917413,9.960132354829618,0.0007998327696158714,-17.01807185076555
1.269809556643056,0.5264560367502895,0.2340503189799816,-101.4770221803782
1.345221394965998,0.7965277295928388,0.1860667766104122,-114.9375199865731
0.2836252113333801,5.054347980448227,0.01228211150443731,-41.96033523760216
0.7431533892234743,0.5837602639909676,0.2224210902710516,-103.9942997802416
9.682324783204268e-17,14.88360749009829,5.717618955120018e-05,-44.68037307340699
0.0854295845618913,16.45504705261673,2.490868892213172e-05,-36.72488961549181
1.30603076952589,0.7815383545184886,0.1883355344588287,-105.4808006801648
1.11833203302798,0.1081888782163958,0.3711077843969638,-109.3679034665057
0.9893442714519299,0.000575693407995459,0.4904288521376155,-82.47432352048665
1.046610577581074,0.02038996774606971,0.4432266573469012,-105.0019022021583
0.4930819853788356,3.202401097624431,0.03676512164295753,-55.94116640158268
0.4280056598000012,3.893314300909267,0.02423933310776399,-55.46291136775032
1.375712936940563,1.280077921755009,0.1289422738126497,-121.0760923407099
1.212188811634386,0.3120668237792188,0.2882073302461312,-103.8174933769234
0.1174821796011468,10.72039809221988,0.0005298043625036608,-50.12566723964802
1.096009064384245,0.0811599395113376,0.387865803924632,-97.22501818955645
1.737078891169413,4.337117482323038,0.01864500255524082,-154.263315013669
0.4640631866912831,3.089191102477315,0.03940698915979185,-67.99316383278259
1.745329516498321,2.592080916101253,0.05369957511375134,-121.5069640583811