dN/dS,LRT,p-value,Log(L)
1.996574504784898,197.9746426465254,0,-2915.568853452655
1.245281551451973,15.99691381169941,3.172291233660696e-05,-2329.640022181583
0.5754040186982915,82.8990878396844,0,-1696.306582937339
1.128201355308655,5.016336012251486,0.01255462324995232,-2198.855491305312
0.9653921456484167,0.394468770408821,0.2649798648985515,-2174.968052251672
2.017534074486149,181.5886559746687,0,-2957.574932399467
1.519836171877178,67.41359695476331,1.110223024625157e-16,-2537.904840532888
1.846481105043128,158.1636696973947,0,-2702.960686127626
0.1614666876514452,448.8935485840541,0,-763.9214778694817
1.07716570293133,2.059412801528651,0.07563422612777643,-2001.107569251097
0.2760006652210636,282.1532520585233,0,-1512.884118269838
1.953573119994896,178.5862577067192,0,-2898.418478614725
0.7108509744189887,34.76712360693136,1.857979325947667e-09,-1901.185530579355
1.154687328673872,7.042858549395532,0.003979095800302146,-2618.350112826905
0.8376588427757875,9.327222287393852,0.001128871696575717,-1774.518210394382
0.4060744486019816,132.9431738200587,0,-1779.090058027412
0.3292435433092871,201.0976650082048,0,-869.894814970846
1.911176259264145,178.4684280546217,0,-2649.548651514235
0.7796983493333368,19.84987488778052,4.188410767547168e-06,-1979.515284435596
0.2413726633682214,365.5252330028006,0,-1192.18405739402
1.392663258409431,42.62571203921289,3.314115648578309e-11,-2643.972823548557
1.590701220404704,85.48780532338242,0,-2677.336971952659
1.933437373123864,187.4288117749502,0,-2727.620027995384
1.203833670913928,11.897633069314,0.0002810265976697091,-2462.700962097652
1.331711520592161,28.10040099042362,5.759099597213435e-08,-2402.945037533653
1.285154595184277,22.21819280611635,1.216784624780143e-06,-2184.138352806036
0.1462098932895264,489.5494028671451,0,-658.2968831136347
1.549050359812276,79.72058736565305,0,-2341.746158573908
0.9910149073761458,0.02804635438951664,0.4334999450745053,-2189.596085633443
1.012567245647564,0.05044044154328731,0.4111493187200824,-2497.196617946574
0.4384720012681331,151.9381363173779,0,-1566.76942754945
1.198674199968567,11.86372678099542,0.0002861894415597255,-1914.487644055902
0.9789718200247727,0.1478951329563643,0.3502775073276602,-2363.277228922119
1.053798549020594,0.8799621129569459,0.1741060283148341,-2018.184796979417
1.582720625356755,86.45366641293003,0,-2792.591670291346
1.864372827041757,161.5564287794259,0,-2603.696648991719
1.723762188286205,120.2926096109977,0,-2455.621728917734
1.218263596658295,14.2597775122922,7.961572022779917e-05,-2077.808606554681
0.1309246128231734,450.1965131309823,0,-901.3102789379967
0.4335806643610504,120.1418791148499,0,-1493.698602964754
2.177963818913919,242.5862757479445,0,-2648.871267630815
0.1767659595398168,408.7651640410409,0,-1209.304750274847
1.394098658519433,41.61650468193875,5.552591719748534e-11,-2094.544476126095
0.4418391935611715,125.5120081216601,0,-1542.044352160378
1.118342097305998,4.390365239357379,0.01807128489680498,-2054.055430599764
0.1714746545168475,453.2739609219996,0,-884.9497961604044
0.5092267800380859,105.9577101697118,0,-1824.492832707825
0.8463232695621035,7.195303330929619,0.003654731710543424,-1803.08964885001
1.880468847916707,164.8319826058932,0,-2397.807819025714
0.5355870881976926,98.75467587457342,0,-1573.793486235699
0.6889070001768997,40.62291458644358,9.231437836376699e-11,-2039.075896202638
1.380002625204244,39.16593942493,1.946361405380514e-10,-2595.600686551245
2.063440018047099,219.9984966901484,0,-2902.884445164373
2.01604733004545,195.4884322533217,0,-2753.590014459603
0.6839356699989318,38.82678263035541,2.315648228723433e-10,-1808.912913889403
0.9751089896364092,0.2074591924038032,0.3243830968436419,-1962.626108989818
0.2311400993897204,357.8144509352378,0,-1465.665201724237
1.023590238054474,0.1820166636871363,0.3348229246743468,-2242.805808746636
1.756523807742247,131.6738188023937,0,-2348.084696891878
1.074989638770702,1.846977078726013,0.08706769388822055,-2040.978840932226
1.238023803893595,15.89304519640791,3.351228017217656e-05,-1957.625838574951
0.1313891493997787,546.8217824291548,0,-721.932066662509
0.6456937322351021,50.93516093653216,4.773403894375861e-13,-1725.507235301955
0.5693922979013936,79.03632660793573,0,-1937.890590849185
0.5237916130600921,107.195613108237,0,-1405.515858318511
1.882281722659824,163.4157633317882,0,-2843.089890226021
1.531282742640327,69.13699888166684,5.551115123125783e-17,-2647.975980858417
1.760742619288981,134.7065184871644,0,-2380.989084206471
1.849061525712357,144.6835231923769,0,-2549.493023484369
1.713194588578509,120.4062163706139,0,-2307.42604529185
0.2910854939407619,205.0448814034421,0,-1232.249091880085
2.002767803460251,206.6621222945914,0,-2600.940249852924
1.323268504376956,28.28108631066698,5.24580559546628e-08,-2221.449910553346
1.844201391974313,154.0719212979757,0,-2760.670248800987
0.3739836400764098,226.2205966672086,0,-1157.112631205434
0.4549076129476657,141.7277928238186,0,-1513.727674321435
2.156665309143246,255.297691844351,0,-2673.180553194628
0.7033224568856906,35.6302065427144,1.192797638438492e-09,-1870.726246227969
1.323556731913942,29.36506525323239,2.997432579920911e-08,-2178.468175481384
1.938073867887644,169.9637065270836,0,-2549.211196963407
0.272865679784311,246.7962493425498,0,-1106.05214905002
0.8156592254655283,11.4000357388004,0.0003672134653072701,-1660.344542983
1.859415048187779,160.7077412875105,0,-2546.746595911178
1.297715084939198,24.04967383931944,4.694108176606093e-07,-2541.046612656407
0.3734937103653531,182.7254760864362,0,-1624.849621275152
0.1600181255063784,418.7942562984595,0,-1261.507792371812
0.1482886358700859,516.80512391295,0,-733.1472087384337
0.7289010215242935,31.1743571625093,1.17930612497652e-08,-1904.092391862064
1.037677079968937,0.4548483504695469,0.2500207485905378,-1996.970825824988
0.2945358738116813,236.5936068032488,0,-1347.308518792109
1.626219710752955,94.34816890793445,0,-2442.675063571845
0.590571374239904,76.54113076427893,0,-1625.247182712701
0.1195934333064097,482.0254699982056,0,-1105.694678674666
0.5663053761949374,89.71589978215661,0,-1752.836736387059
0.8578353036895181,6.299154396486756,0.00603977903792996,-1937.19148079785
1.001856576567985,0.001159550260126707,0.4864177747046387,-2341.8456162016
0.5520676768124835,91.02582042652784,0,-1353.996165312803
2.097523463132486,210.6645348881839,0,-2940.773958836224
0.1443816635308432,451.6797668791651,0,-647.8361496307022
1.733332666525854,121.6511459654412,0,-2278.125566706776