dN/dS,LRT,p-value,Log(L)
1.583935737183259,11.67555325914111,0.000316633531665278,-433.0677348066873
1.238960596161396,2.975650008289449,0.04226308313074012,-439.5018855399879
0.0983716784742205,80.27336599522062,0,-222.1794592249839
1.310101725212241,4.640837140560848,0.01560988490555454,-430.5348320397601
1.560243055670129,11.90725597334597,0.0002795785406888296,-477.8226368135324
0.0506086192999342,92.44126450308465,0,-158.2145051981822
0.1221853717179185,59.76115738538218,5.329070518200751e-15,-116.3439119892582
1.309595440619587,3.649961366417529,0.02803525602770524,-393.8826893721924
0.7166805743963635,4.390838205220234,0.01806627255365201,-335.5575946758432
1.340713553619251,4.362459992433173,0.01836960778083357,-433.5421986054196
0.3266766657317413,47.54223325809375,2.691569189749998e-12,-217.6741758075052
1.220962010183877,2.345169640533186,0.06283594012367183,-407.8172972856883
1.069529106325247,0.2388040169851138,0.3125356271039792,-410.8838379199844
0.8528150979076949,1.514585625635618,0.1092203459345679,-377.1978160983958
0.7539129516590549,2.938222435562807,0.04325294138747371,-292.0213748932353
0.253116399949492,45.87239204033341,6.310618694271852e-12,-208.8765633085315
1.704911363998753,17.82511694616232,1.210826847947155e-05,-497.2590009603332
1.570009583376982,13.53435951015024,0.0001171176539447871,-485.1826677222114
0.6137376393966751,10.87995647687956,0.0004860526541423105,-250.658729879014
0.4712678717483104,21.40616019591948,1.85787709711116e-06,-272.0768112391741
0.9658400502134427,0.06267544964634908,0.4011580937897344,-379.0632294310388
1.017789889307142,0.01767258163579299,0.4471211031776874,-363.9429786403729
0.6074304749290271,8.553058621962691,0.001724710832859022,-322.3796897595858
0.7441965638997375,3.978559755768288,0.02304147518281774,-332.4015471854759
1.23868050279328,2.058835756584358,0.07566287551114054,-385.1390069812458
1.122211755488796,0.8428647521756147,0.1792893668130938,-424.9282643015653
1.271964969011508,2.949048199074809,0.04296407607776909,-388.0965166721684
0.5448216785362819,15.84560659346164,3.436295576503268e-05,-293.2993378340512
0.4365185501188066,18.35015489515467,9.190202055642249e-06,-337.0891792841729
1.319002039514544,4.235535880310408,0.01979306250275115,-429.8545668257483
0.2387275147705798,54.56612647072836,7.51620987671231e-14,-194.7202450384732
0.8554113711636235,1.245948727090195,0.1321638307429053,-366.342260731749
0.07042513200897231,123.0867472132695,0,-115.6854980875676
0.3959494641655262,24.66833720451484,3.404687369257253e-07,-204.2505775429894
0.4136067080304314,27.91901563045724,6.325022344766396e-08,-255.2301228072852
0.1197852489600185,81.347483599047,0,-169.9636587915618
1.208278221213993,2.109167611363659,0.07320947115393123,-415.7978648204466
0.9220545254078596,0.4010835128029839,0.2632651078568252,-386.935592578296
0.7771239479750627,3.402883335092952,0.03254128099322329,-382.932085523559
0.8158257285097752,2.173143953461022,0.07021942975398282,-355.7695499852886
0.6770096367555476,6.322167028663102,0.00596189118653323,-297.8297200918366
0.6259568177500417,9.955582240106764,0.0008018120090951264,-262.3045680993707
1.841617583320902,28.84636703817,3.917636426375992e-08,-520.5964728773774
0.9519392407545683,0.1220410963319409,0.3634156067318114,-385.0967173244776
0.6817498042062572,6.089056797614603,0.006801084024012083,-320.4644587625344
0.2946889533654026,40.92930508291028,7.891826081518616e-11,-250.5500363776908
0.8741591783230378,0.8851751918009541,0.1733940715157932,-353.6879201669634
0.1441785791254435,62.0914033888418,1.665334536937735e-15,-176.5347427757117
0.3873646044457002,31.99534875689358,7.727108175537012e-09,-279.1061502006078
1.486077932575127,10.92056201723472,0.0004755137672002863,-486.03181569268
1.117432738182467,0.5742302160069812,0.2242914104045786,-354.878642616083
0.5417010143797351,11.77209767546594,0.0003006259220423857,-280.0868243557114
1.167622055271619,1.211485278787791,0.1355190828339678,-345.355181844829
0.1948270642746415,68.16657970445169,5.551115123125783e-17,-193.1083554725176
0.4018404251769669,26.75839312501319,1.152740912724326e-07,-309.8705065772269
1.111890643577014,0.7047206427437231,0.2006010108118648,-374.0152179403519
1.276972280505698,3.625156552551516,0.02845610868628368,-457.1560625407104
0.7521429322616386,3.952776692926136,0.02339704719776253,-312.9360591131682
1.66813810014988,20.05812351434383,3.756186964909425e-06,-488.4646434396037
0.3131945716529481,39.99213606736157,1.274936822781569e-10,-218.5638215909017
0.412150263266517,30.39391878857941,1.763159523937574e-08,-261.3036928852714
0.228536467048993,55.51412842943841,4.640732242933154e-14,-148.0883236344105
0.4770379738073127,18.50267033262912,8.483320915242398e-06,-265.8075776710273
1.648449478112299,17.61637621911075,1.351255670262175e-05,-460.7817202439313
0.06876294125752046,84.72753773047566,0,-169.8245567584364
0.9576783706605386,0.08890736808757538,0.3827854166871162,-342.2523694743205
0.2647941362376118,50.67580547023641,5.447864381835643e-13,-195.0942290271232
1.350880820798116,6.427194055733139,0.005619299453885118,-451.7767136167288
1.235898580241799,2.816764049896165,0.04664214770932312,-454.858471001405
1.41100760527328,7.150235578729735,0.003747707038941506,-425.7441655614549
0.7025531861985075,5.94850416557199,0.007364890018268344,-348.346053151404
0.164838022697874,76.43076019442509,0,-186.2647619996329
0.2954408677221692,38.33095252493149,2.985401925670317e-10,-263.9984466401367
0.4875557775928414,17.38975727708055,1.522311418622468e-05,-220.9244560857721
1.222626790704015,2.73193282854038,0.04918009088103059,-459.0024362221848
0.1827535931768705,48.81928783678609,1.403321903126198e-12,-149.395501000695
1.276313482483622,3.914656125349211,0.02393340355269952,-487.8821340009431
0.9968320197371949,0.0005336564888693829,0.4907848515234391,-366.9669070062681
0.06003261312243306,75.6925580545844,0,-114.6328795470646
1.467860119391305,9.254687427059935,0.001174467115819311,-437.2161402663067
0.8666606980922642,1.173802227167585,0.1393106802064008,-371.4477574348539
0.8646116882113494,0.8374436773732441,0.1800644526650966,-368.4033640478154
1.254718894404488,3.122238631293044,0.03861530762751519,-421.495033288676
0.4994294792874194,16.20972547438748,2.835113387489319e-05,-236.444659474196
1.429613976896715,9.555308890967353,0.0009968598034570952,-469.396371394389
1.43802652216986,9.038797658064823,0.00132154707045723,-503.7196214983759
1.571665802441693,12.42356025878348,0.0002119756236099168,-445.9722825890827
1.396149368887704,7.389198413129634,0.003280836236957851,-432.0345584260169
0.6438532682905369,9.640607619901857,0.0009516113340797827,-300.7539973100131
0.2423020747513537,53.14887042539146,1.54598556179053e-13,-179.0813258516466
1.163996446287526,1.463001321205979,0.113226591172617,-393.6104743655105
1.540770068945541,9.03347249841886,0.001325402295243194,-382.3338824832837
0.9211730164193789,0.334097527034146,0.281628109575485,-385.4173779968309
0.5422689467391043,16.13935539385534,2.942418581236561e-05,-275.7808995984028
1.562953303653693,14.73205136183822,6.196081479165061e-05,-465.7436766969126
0.7870881222524057,2.678297986214716,0.0508621985983036,-330.0210815482132
0.1135059622400352,87.89139559581446,0,-181.1601922209905
1.327619431039979,5.13187122265208,0.01174519494666204,-442.1929201481922
1.382843535764893,8.020267095443273,0.002312837397682288,-468.5103026569137
0.9777255934294502,0.02620716335820816,0.4356977088643674,-363.6591343899328