dN/dS,LRT,p-value,Log(L)
2.223853424131534,67.0313376726067,1.110223024625157e-16,-1064.360750742778
1.301609971629794,4.126848861679605,0.02110393803156069,-475.1419611569663
1.014612007782461,0.01269800859586212,0.455139972096153,-683.094548251957
1.667306486317331,24.31204673284037,4.096254653251918e-07,-898.0763937455888
1.143778886608121,1.149229534671349,0.1418552465632525,-527.2375218249008
1.025271526123724,0.03684158542455407,0.4238939678083427,-547.5566915776151
0.3646313989610324,36.56133277360721,7.396868673126278e-10,-378.0058481176711
1.296134637016783,4.724262495450603,0.01486996723884976,-674.68585715436
1.339020554907716,6.469538515540535,0.005486951240566473,-568.2012651339093
1.204172363353229,2.356317335003951,0.06238822023224827,-647.759719912433
1.559832721522697,15.65684906992396,3.79685350792025e-05,-656.4892583179032
0.5312663931744677,15.91110386393018,3.31940444346368e-05,-416.7686243150743
0.6366398645418103,9.013152415789364,0.001340218517633218,-480.8812571824535
1.321384942647303,5.517423343876089,0.009413985605861319,-636.6578344514128
1.039192087327907,0.09139325233650197,0.3812066700542026,-486.3339336865394
1.196953726052162,2.149466114982488,0.07130973770299021,-722.5699560503488
1.168945432600932,1.656541112965215,0.09903549186866095,-716.6775910083437
1.408252610564571,8.846224541026913,0.001468478917371951,-720.0870344921861
0.8613203541215251,1.536266930822535,0.1075871607561792,-493.4985208503312
1.887882278995454,37.05031240280914,5.756006782320355e-10,-744.2581551031949
1.011401430140623,0.007637966808715646,0.4651785881224274,-606.3836009202874
0.06673044655577259,89.92789971551042,0,-329.7515361502657
0.8124309660531638,1.752313634709253,0.09279307025378192,-262.7915526918144
0.6571907496287769,8.509876958238351,0.001766119726974935,-497.0501476957262
1.126271925864486,0.7597893668330471,0.1916972239212921,-705.0669065004439
1.714149507543832,30.94408908606533,1.327848353493977e-08,-888.6026685187958
0.1791229997190116,68.46602726212745,5.551115123125783e-17,-257.2091645149991
2.189785352285446,60.12652289900416,4.440892098500626e-15,-963.3276633615369
1.491478786242999,12.56001999576756,0.0001970437658824209,-726.4225396540517
0.3866111509831036,29.14045144613914,3.365834561064318e-08,-218.7088007533545
0.8981150897506589,0.6428675160198054,0.211337165838688,-535.1172442601609
1.144701341578286,1.077816907241186,0.1495932212958333,-761.4126752897973
1.725836331010933,25.34641369854626,2.395210914607482e-07,-946.74988752912
1.642467151952231,20.23707467700615,3.420706141510355e-06,-668.1157784871673
1.019588109757248,0.02341897083601907,0.4391862910060631,-672.7042683226699
1.285488771591648,4.618208327231741,0.01581713240171184,-547.7182609615961
1.254492438689782,3.89031862864681,0.02428260451853742,-642.6824287124637
1.995236038390818,59.04031511523181,7.716050021144838e-15,-962.6857088117483
0.3780254145535156,34.83108039836503,1.797934801039958e-09,-247.2396236496393
1.78893336389046,23.46145276779612,6.372089172979045e-07,-721.7283398655048
0.1591445878971999,68.65283554112386,5.551115123125783e-17,-232.1887100693252
0.8208021978637947,1.990144311001131,0.079162895628755,-385.4399528965807
1.428333368707022,9.928329917179099,0.0008137706956280466,-669.0847125352828
0.8038873515737215,2.449979629986842,0.05876319665600988,-372.5019150943463
0.1499610137680577,67.63356836997667,1.110223024625157e-16,-213.9031421427088
1.498175451043624,14.10878006962457,8.626827180052699e-05,-698.6203980524368
1.735800013689641,27.6053127901057,7.438479210364335e-08,-784.9995094625821
1.25928714178756,3.673391877138556,0.02764378173174731,-543.1547669002472
1.602757413274491,19.18678790134231,5.926547048284991e-06,-696.5051934250159
1.579080207337097,16.7833156004067,2.095004458824157e-05,-905.996105814228
1.271562757040092,4.083177891838432,0.02165606334274983,-702.5228280130691
1.547526408982449,16.46226164032464,2.48140775565564e-05,-698.0240089931382
0.8238180271081328,1.95193120316776,0.08118944858971316,-517.8365858042678
1.253252170963401,2.728247521833964,0.04929370538942812,-536.5029229324263
0.2426130212256141,50.96363550389719,4.704570066849101e-13,-436.0701843885341
1.197829540798429,2.136386722298766,0.07192016713050631,-685.7931624685073
0.7671756312199203,3.745265827407366,0.02647865154048656,-521.2870013714837
0.940095861475754,0.2092324230004579,0.3236848446319577,-524.9931343129307
0.7763148035578001,3.197639439814566,0.03687231960084236,-625.7926577265794
2.141008632140677,58.44180618265455,1.049160758270773e-14,-1020.373650373838
0.5669202024675786,13.28575438602365,0.0001337152000550068,-345.6505479682099
1.080737254108674,0.3738012358658125,0.2704697624134522,-617.472880396786
1.913173989582793,38.12784206695824,3.312894958362733e-10,-774.5889972651145
0.1559198991865944,42.51306232883212,3.510586266131099e-11,-541.9062965188473
1.47828004532185,12.30470092746327,0.0002259094443053389,-722.1726395711956
1.474469375120779,11.49475921823546,0.0003489634949447873,-603.7279361747662
0.4095477077015602,27.33192323656056,8.567944775883518e-08,-319.487300520599
1.895297992008424,38.78382703307125,2.367170903738725e-10,-747.9554977517107
0.4687078412523381,20.94400827283289,2.364523073616898e-06,-531.2904806320166
0.3774358467637549,34.96580711478725,1.677731342741851e-09,-241.568695750753
0.7053797457923575,6.148474524150856,0.006576275082533223,-346.844335835811
1.460163931972535,12.22036467208204,0.0002363534522751287,-748.6289378270243
1.153939917794863,1.42446648207283,0.116334819420833,-524.7018439350819
1.623951840904835,18.98740087479587,6.579222575964216e-06,-634.5929707930402
0.960516647690275,0.06049125535423627,0.4028605847550906,-654.1619958038282
0.9514547917367687,0.1402154502873145,0.3540334597399879,-521.9280818862516
0.8041846594766613,2.390265417078353,0.06104644894829631,-359.1773935769485
0.707606914317511,4.821456777787148,0.01405379010008551,-444.0489710788679
1.18216692928653,1.843955889725748,0.08724399987138592,-608.6691418848209
1.259923228639399,3.787631364388517,0.02581633288063873,-540.4904246311395
1.826230509210844,34.80887502554469,1.818558359456546e-09,-821.5333751352032
0.3582028048531509,42.60520841541984,3.349037713817893e-11,-338.3502459479823
1.970350328965313,42.76611057378705,3.084588140467304e-11,-718.8626695863201
0.7482195185695085,4.621044648135467,0.01579099918224458,-434.7660426888936
1.845604882959589,40.16432705773923,1.167364538368076e-10,-799.4544528779817
0.8632068430971512,1.153524176850624,0.1414063147140051,-564.4381798567008
1.088159312463528,0.4716122935724343,0.2461231858987146,-619.0816948354104
0.1032671680185102,76.6801476398515,0,-311.7814854988417
0.3215441692386583,36.91523634338296,6.168900390512988e-10,-414.1366051362645
1.474194477759885,8.441250373322873,0.001834019780983798,-831.1467652812025
1.312362977480593,5.438689008287156,0.009847723431384903,-674.2537516961517
0.56499926863579,13.46690763367837,0.0001214040832969165,-494.6692862757019
1.390614023470601,6.509850769169361,0.005363925533032388,-559.6891918252495
1.468122393972607,11.25434795505771,0.0003971836096337,-785.5261702641092
0.4364212548142261,27.61151234665442,7.414676328476588e-08,-375.0152703351051
1.289982248775868,5.159140799259603,0.01156216715507891,-632.0187011461243
1.341118981148929,5.989989594639155,0.007193643620337253,-595.0887541174532
0.7152551128670835,5.388640389258626,0.01013412857751672,-391.9639436227975
0.3342131999100738,41.05579289340255,7.397249479623724e-11,-332.9394780590393
0.2618016024045015,47.16064473562767,3.270050896730936e-12,-190.1469792597283