dN/dS,LRT,p-value,Log(L)
0.6922346997484004,0.9190402802460369,0.1688635448089271,-61.18435344023747
0.5198740086267022,3.225617821055252,0.03624721819753995,-63.84704573138655
0.6576620176729686,1.417076724216059,0.1169425799229509,-77.63488933495849
0.5065891201610966,3.520833671218298,0.03030097867640241,-79.91140503707072
1.044302334995929,0.02032464250578414,0.4433170598700668,-118.3174275489683
1.057942640173522,0.0248549786182366,0.4373644813297318,-68.81894264729732
0.259557845432441,9.006604251472254,0.00134502879588011,-56.69117474827769
1.229207441967503,0.4363948230008532,0.2544338366132419,-100.9941828849634
0.5061905040035291,3.530303684063455,0.03012837530622631,-66.84518164935146
1.733873699823768,4.30715923178758,0.01897614386157292,-185.6108246388734
1.119161396503192,0.1217454554835058,0.363574529431415,-123.5845009430952
9.555848176237971e-17,17.70343095775819,1.290802723025175e-05,-15.26407532575128
0.7498073085822207,0.7298555770116479,0.1964650028274476,-78.41981117596877
0.7031778773500447,0.9770074621241349,0.1614693670079294,-75.10934497336864
1.271899358049349,0.7999061466690023,0.1855607158282664,-158.754675283485
0.9144446784829892,0.07399865742749512,0.3928006515740748,-81.41850442236353
0.3387202542024829,5.208175829342423,0.01124045496262599,-71.90050419761002
0.9429638612367403,0.0420665699478775,0.4187464649792705,-107.5444220810087
0.5201236446102034,3.219997434604579,0.03637187200411907,-78.37392455869893
0.9559423494149826,0.02261085142558272,0.4402367287716961,-116.6411205572048
1.035230986068663,0.008278618776614621,0.4637514939605611,-110.6268336189921
0.814106622626341,0.3619244866040674,0.273719681409073,-83.92514102865337
0.1482425081689576,7.664213313745307,0.002816340711501442,-30.91396237168819
0.1893644803281403,10.44761649779753,0.0006140391075067364,-71.57993807277163
1.156448512349589,0.2409556424393315,0.3117583749721123,-119.6856829010658
0.0920979633832478,14.92295779480955,5.599590007848709e-05,-88.5746351098682
1.71886180359176,4.428693976422551,0.01766976973860068,-158.5337009900046
0.2835910227209594,7.582679636243284,0.002946588563686459,-75.12394308066713
1.858823009795919,4.40839992297208,0.01788118524934595,-131.4131042039957
1.740274074094798,4.616583020457881,0.01583212794336508,-160.8127308597816
1.063357924100857,0.0405564028598917,0.4201983012214917,-116.2463234645697
0.7797549192265941,0.4702244163630098,0.2464419723441978,-106.5027525675347
0.568093546878004,2.332853285956105,0.06333475321373416,-99.98466345037022
0.8725734485161162,0.1940597895528811,0.329779476436414,-88.73790517748529
0.2768392482092829,7.952657307012032,0.002400841116520447,-55.90931064693012
0.5579405846669554,2.49995409520632,0.05692480827090873,-57.04148376073597
1.467585982527444,1.814961444415985,0.08895710115997563,-124.9175170411936
1.423228737333661,1.549906868372773,0.1065745951068726,-129.6329222389925
0.5987391066033801,1.622672675588973,0.1013597617731523,-74.05046660115059
1.308949350756237,0.8600199029344822,0.1768665609989827,-133.5176864029982
0.4328799616039105,4.718010417999821,0.01492412985866498,-58.2401960746889
0.9160213584684127,0.0711332929712114,0.3948468989937328,-75.94959787416806
1.302346864241367,0.5107821264108452,0.2374002377378067,-116.1022295485541
1.433655119130937,1.610932554861762,0.1021803816174909,-124.0186209949502
1,0,1,0
1.519703536946992,2.438433128045176,0.05919721720749266,-145.2556134750966
0.1014008943238323,13.12534095966681,0.0001456641673050485,-35.8381270765036
0.576040152084734,1.840018348028337,0.08747439841481308,-61.32531088526291
1.20373006672204,0.4194111640878475,0.2586155041385662,-125.6391401928162
0.2345004227100369,10.8592709363863,0.0004915119370751397,-44.86470908544914
0.5078694422299241,2.908507095376294,0.04405670216463287,-58.00545414948628
0.7726368043213631,0.5795084127901475,0.2232525359962637,-89.5401751954913
1.303127694470231,0.9615578647627103,0.1633973434062433,-142.3513100591125
0.9492828734779631,0.02750055759116776,0.4341442189211051,-103.4586921994338
0.101437909652407,13.11888236659286,0.0001461671881770599,-46.01548022617838
0.4406962936004196,3.589603624819489,0.02907105480077321,-49.81780979233849
1.322738260174059,0.925319226061788,0.1680410911835633,-126.4357572691138
1.017533412099958,0.002995763972762688,0.4781753611773101,-128.6658832455405
0.7810508006357086,0.5963509023223423,0.2199868595296076,-80.88329318206458
0.2227174245216009,7.937053101546667,0.002421632183657818,-60.68946777798479
2.723705003052118,19.12558380681838,6.119660254766401e-06,-188.0135528935141
1.387025928793245,1.439493279445401,0.1151106782492693,-149.0148727954705
2.202236816052561,11.16231567384085,0.0004173783143278653,-186.9259639579064
0.1014317089048469,13.11996006753523,0.0001460831309845201,-84.14682261076643
0.930000318990828,0.05923491242452883,0.4038546521910606,-99.02810449307111
0.6647639823351277,1.340318249014899,0.1234889261123025,-88.02557470727676
1.943317371767603,6.778169731863954,0.004613973290225115,-175.8847346565508
2.560872034287551,16.48478529592433,2.452102323646788e-05,-183.4431723093478
0.09358730483070275,14.60679067371048,6.621822719965476e-05,-49.28096645547797
0.7377859074833077,0.8189493107713304,0.1827437709443681,-82.73065424859759
0.2305255483696219,7.468942162706838,0.00313862122284303,-42.49747805712747
0.926801931413766,0.04139802729713438,0.4193857794936921,-83.47379183560302
1.583781542133146,3.63382776164832,0.02830823081339295,-153.4499462642099
0.9165430348788951,0.07019919832009691,0.3955234841300951,-148.7706156510108
0.4741149750399019,3.620944125890418,0.02852824268317139,-62.64137306940661
0.602345490856837,1.834492839662843,0.08779889710624833,-58.9602470816457
0.1011371219669758,13.16814664686122,0.0001423741135518353,-33.69496102448556
0.3553158413580396,6.226419627402521,0.006292898068926578,-63.59566959621431
1.554753129411504,2.527201917233413,0.05594924199839457,-140.1906724802729
0.7098316959115243,0.9222983219774505,0.1684361153947064,-67.97824045811244
0.09282267122129836,14.76673516307049,6.083144573726385e-05,-57.68058611657786
0.2023645340548022,9.357444124175075,0.001110408090395587,-25.49602974507273
1.87617408485834,5.495888496953626,0.009530619779374638,-150.387971446735
0.9324982909285069,0.04986491689737704,0.4116492476390328,-95.80618303490739
0.2088711770412267,8.872298549746247,0.001447651817435502,-40.69023096541401
0.4183615592749484,4.142982737177078,0.02090372062455365,-80.53565288294421
1.364668409698744,1.132690892393839,0.1436010468859747,-118.402907613306
0.508141758299149,2.903315877157638,0.04419877065056538,-106.7366409979535
0.1321368345418867,9.075271563983748,0.001295445489060021,-27.86132507228475
0.8268590162962706,0.3076202814639544,0.2895720801026406,-73.17656917765592
0.9566309257514619,0.02188910663056731,0.4411912418916588,-113.8399745880629
0.812917636208535,0.3672741998120159,0.2722469123557192,-92.60581756554932
0.5620387175887238,2.430538666840135,0.0594960014529809,-74.99299327624183
0.7840679974998126,0.4487863141266928,0.2514559393203643,-77.70249206926482
1.099313077371597,0.1122016111349922,0.3688257105255833,-160.2309159098817
9.555848176237971e-17,19.74810141461819,4.417470878037566e-06,-12.71294466010591
0.6441430914639973,1.57297591245802,0.1048876824788204,-111.2705443308722
2.004913353019885,7.362475953621811,0.003329951042349677,-151.6197198353946
0.7843495015255809,0.6384494109567811,0.2121364231488778,-91.64414800036052
1.005422052791718,0.0002603378501078168,0.4935633502260438,-114.3892805536463