dN/dS,LRT,p-value,Log(L)
0.2449208648467306,782.8003033652008,0,-1960.980743224547
0.7879830853847005,29.19003870425513,3.280784077741572e-08,-3056.21744465501
1.355457980105548,46.00190506986291,5.906886091366914e-12,-3551.767518145012
1.776891887199585,154.4287891373797,0,-3770.456670518423
0.3571133299342329,445.1858760192481,0,-2237.143182468707
1.730501936863722,142.099561898186,0,-3755.190318650858
1.601396054452143,107.6300597347954,0,-3628.152550080835
0.4605365719556567,254.7802385489385,0,-2699.337588624862
1.301540159256937,33.5638327916804,3.448158925056788e-09,-3474.614123319242
0.2494325640666081,621.0588388362967,0,-2002.485018605575
0.1049242128985304,1342.176924779863,0,-1437.084815416752
0.183494874697463,940.943785265456,0,-1669.427003724217
1.230129067230453,21.23064368866744,2.036009078665302e-06,-3439.682749868699
0.6856934883296196,66.91861112174502,1.665334536937735e-16,-2795.79501520747
1.034067327035983,0.5856051328337344,0.2220618182364054,-3300.781116966171
1.59506718122228,101.9215045847131,0,-3746.682817263646
1.250185693638038,26.29037948039786,1.46874153228449e-07,-3384.13478505712
0.3220610906270422,450.3295945686223,0,-2318.984782146627
0.5972069260839739,126.5949386472157,0,-2651.758076696628
0.2844624707072436,580.1979091775984,0,-1949.540246467157
0.9110936143144458,4.588891848822641,0.0160899066461096,-3184.025168879166
1.283543120478399,30.9678894873332,1.311664310499339e-08,-3500.896931192099
0.617345270443061,120.5032721502557,0,-2759.588129617026
0.3190500559088217,452.8935911248191,0,-2089.56848538494
0.5583106810830472,156.4134994880806,0,-2759.575148156415
0.4878843656694739,206.7933450569553,0,-2542.970519702866
1.491437211512631,85.00148528782302,0,-3654.349918897756
0.4773811710610885,238.6509756155392,0,-2597.613004288832
1.02197970755388,0.2396538889342992,0.3122281031214024,-3389.740539036281
1.90205481023206,188.8162884879393,0,-3822.716019003723
1.407274244869861,61.08717731518027,2.720046410331634e-15,-3497.08598400478
0.1071437538489843,1142.734768925557,0,-1510.507069041868
1.023074572630561,0.2576653294117932,0.305864330361655,-3413.238166966202
2.435119372425456,337.2910510483789,0,-3918.352282537009
1.062772770337303,1.897225927503314,0.08419457750612386,-3266.102314945094
0.9840281608360001,0.1394909937880584,0.3543937792714031,-3316.683262206862
1.176833940716396,13.03759209496184,0.0001526501863336471,-3455.498186970149
2.612159314090412,387.7825772758724,0,-3971.616909906047
0.7278849704843013,48.27777267408783,1.849631559025511e-12,-3083.758619555052
0.7379925499426531,41.594439404269,5.615613529741381e-11,-2870.869613557528
1.033949085507485,0.5891605070564765,0.2213719645968155,-3276.564966481617
1.14260505646089,8.768265634316776,0.00153258387224936,-3343.103978997226
0.8577259364518678,11.60761330055902,0.0003284119388692885,-3241.516790483316
1.685769603230506,132.38728034019,0,-3773.615979676166
0.2133498364188783,631.7879396345497,0,-1804.222916640319
2.323904085643232,329.6951857585818,0,-3906.704053631608
0.7251847009298522,52.79524517930349,1.850741782050136e-13,-2944.050473153654
1.576172287180283,99.95172042025752,0,-3679.251734690017
0.6684192154744505,82.80462722310949,0,-2861.503621364498
1.072682979527889,2.352324809396123,0.06254816159162424,-3462.765358301224
0.503929212576919,227.5731157965856,0,-2670.505752712502
1.957955452343268,218.2340901362822,0,-3832.197356112663
1.240197492101011,22.61619268832419,9.890519304112111e-07,-3506.645043522537
0.7422427476005166,44.25882780772827,1.438521524121938e-11,-3111.066506745055
0.5675051746291282,151.1672497811169,0,-2602.250038698184
0.8251147392924493,18.43991761947291,8.767304537193876e-06,-3053.325877437456
0.9302987970031475,2.569165655316283,0.05448259470560129,-3356.016412886632
0.1250018916921265,1214.863342744024,0,-1468.405607960259
0.7879611170247092,29.03185852746537,3.559886202486595e-08,-2957.196315307245
1.293780156615115,33.28499546480998,3.979720331059866e-09,-3469.2554429424
2.036568002988624,238.011722136941,0,-3836.238668000134
0.9269557710869859,2.82495947130883,0.04640461755885988,-3066.764503934711
0.1845584194315057,852.7923065879872,0,-1877.562905878479
1.027835600266215,0.3859970077428443,0.2672055427623286,-3280.214070804264
1.706751040102318,135.2823469595996,0,-3770.454646702481
0.508063599728695,197.2588990283102,0,-2723.646161716249
0.8838579989106791,7.397905121094482,0.003264993924433468,-3228.059587680299
1.246155362624132,23.65204002092287,5.771174330093665e-07,-3393.519826890771
0.7967386225520817,24.79286923198742,3.191658878298753e-07,-3017.090353822261
0.5040989271313217,224.7282874994708,0,-2438.255693603096
0.9011060131261172,5.628662741285552,0.008834552835835396,-3190.894821939805
1.874118356983765,190.9873195228292,0,-3777.431280716908
1.262088709089414,26.67090503904728,1.206133291575817e-07,-3498.147532309166
1.334139881186091,41.03225628266682,7.48687223328659e-11,-3552.424180473428
0.2005456288181144,932.1963526995091,0,-1761.340457614497
0.7130281871073222,53.6419042154057,1.202926647181357e-13,-2811.243983688339
2.381050917127995,325.5629895096317,0,-3917.63282321528
1.87108004231839,186.1300727487851,0,-3790.878570543398
0.7744284304101861,33.47490960853247,3.609463339326879e-09,-3108.803553742851
1.713013160699324,131.4063152306053,0,-3761.248232545043
0.3036612420876351,491.9815353529225,0,-1740.517484410437
1.146825073977322,9.294215406333024,0.001149392870490873,-3385.230421751273
0.7296894934654187,45.6740442389937,6.98308078028731e-12,-2900.911169659011
0.09927208047502377,1290.909693568059,0,-1214.985603240076
0.1382826826931781,957.5922536140979,0,-1096.709374926857
0.7177337088392333,54.74051878028604,6.877831637552845e-14,-2870.605934279663
1.683895578502402,132.979649383471,0,-3682.234498818957
1.136788865930065,8.474929785435961,0.001800371409135249,-3393.194111386078
1.218734234867789,18.2439736393053,9.716991705044364e-06,-3482.531937171766
0.1147611715505569,1227.793389758006,0,-1362.298805451514
1.450085089257236,64.76356897107325,4.440892098500626e-16,-3678.972686811327
1.299635352254978,35.45123431899265,1.307583041842975e-09,-3551.407344795422
0.6740239306163321,77.50909330269224,0,-2889.008400382765
0.4831033536664402,234.3993197615873,0,-2533.113261331108
0.5901466063516763,127.30893493861,0,-2519.869707998111
1.16047976825344,10.87313960648135,0.0004878449405948948,-3462.314797950896
0.5925810035199621,125.5879539648622,0,-2651.312353534447
0.7920070222162959,28.03755410741087,5.949193720988788e-08,-2901.404694987126
0.848633393526635,13.4702070747353,0.0001211907788583044,-3181.187669637965
0.1132004185887264,975.9738379888781,0,-1830.687874628878